{"learner":{"attributes":{},"feature_names":["num_line","max_lineno","num_val_cutoff","num_val_tohex","max_node_of_line","std_node_of_line","var_node_of_line","entropy","max_val_entropy","min_val_entropy","std_val_entropy","var_val_entropy","ZEND_AST_ZVAL","ZEND_AST_CONSTANT","ZEND_AST_ZNODE","ZEND_AST_FUNC_DECL","ZEND_AST_CLOSURE","ZEND_AST_METHOD","ZEND_AST_CLASS","ZEND_AST_ARROW_FUNC","ZEND_AST_ARG_LIST","ZEND_AST_ARRAY","ZEND_AST_ENCAPS_LIST","ZEND_AST_EXPR_LIST","ZEND_AST_STMT_LIST","ZEND_AST_IF","ZEND_AST_SWITCH_LIST","ZEND_AST_CATCH_LIST","ZEND_AST_PARAM_LIST","ZEND_AST_CLOSURE_USES","ZEND_AST_PROP_DECL","ZEND_AST_CONST_DECL","ZEND_AST_CLASS_CONST_DECL","ZEND_AST_NAME_LIST","ZEND_AST_TRAIT_ADAPTATIONS","ZEND_AST_USE","ZEND_AST_MAGIC_CONST","ZEND_AST_TYPE","ZEND_AST_CONSTANT_CLASS","ZEND_AST_VAR","ZEND_AST_CONST","ZEND_AST_UNPACK","ZEND_AST_UNARY_PLUS","ZEND_AST_UNARY_MINUS","ZEND_AST_CAST","ZEND_AST_EMPTY","ZEND_AST_ISSET","ZEND_AST_SILENCE","ZEND_AST_SHELL_EXEC","ZEND_AST_CLONE","ZEND_AST_EXIT","ZEND_AST_PRINT","ZEND_AST_INCLUDE_OR_EVAL","ZEND_AST_UNARY_OP","ZEND_AST_PRE_INC","ZEND_AST_PRE_DEC","ZEND_AST_POST_INC","ZEND_AST_POST_DEC","ZEND_AST_YIELD_FROM","ZEND_AST_CLASS_NAME","ZEND_AST_GLOBAL","ZEND_AST_UNSET","ZEND_AST_RETURN","ZEND_AST_LABEL","ZEND_AST_REF","ZEND_AST_HALT_COMPILER","ZEND_AST_ECHO","ZEND_AST_THROW","ZEND_AST_GOTO","ZEND_AST_BREAK","ZEND_AST_CONTINUE","ZEND_AST_DIM","ZEND_AST_PROP","ZEND_AST_STATIC_PROP","ZEND_AST_CALL","ZEND_AST_CLASS_CONST","ZEND_AST_ASSIGN","ZEND_AST_ASSIGN_REF","ZEND_AST_ASSIGN_OP","ZEND_AST_BINARY_OP","ZEND_AST_GREATER","ZEND_AST_GREATER_EQUAL","ZEND_AST_AND","ZEND_AST_OR","ZEND_AST_ARRAY_ELEM","ZEND_AST_NEW","ZEND_AST_INSTANCEOF","ZEND_AST_YIELD","ZEND_AST_COALESCE","ZEND_AST_ASSIGN_COALESCE","ZEND_AST_STATIC","ZEND_AST_WHILE","ZEND_AST_DO_WHILE","ZEND_AST_IF_ELEM","ZEND_AST_SWITCH","ZEND_AST_SWITCH_CASE","ZEND_AST_DECLARE","ZEND_AST_USE_TRAIT","ZEND_AST_TRAIT_PRECEDENCE","ZEND_AST_METHOD_REFERENCE","ZEND_AST_NAMESPACE","ZEND_AST_USE_ELEM","ZEND_AST_TRAIT_ALIAS","ZEND_AST_GROUP_USE","ZEND_AST_PROP_GROUP","ZEND_AST_METHOD_CALL","ZEND_AST_STATIC_CALL","ZEND_AST_CONDITIONAL","ZEND_AST_TRY","ZEND_AST_CATCH","ZEND_AST_PARAM","ZEND_AST_PROP_ELEM","ZEND_AST_CONST_ELEM","ZEND_AST_FOR","ZEND_AST_FOREACH","exec","passthru","shell_exec","system","ssh2_exec","INCLUDE_OR_EVAL(eval)","INCLUDE_OR_EVAL(include)","INCLUDE_OR_EVAL(include_once)","INCLUDE_OR_EVAL(require)","INCLUDE_OR_EVAL(require_once)","file_get_contents","assert","create_function","_GET","_POST","_COOKIE","_REQUEST","_FILES","_SERVER","_ENV","_SESSION"],"feature_types":["int","int","int","int","int","float","float","float","float","float","float","float","int","int","int","int","int","int","int","int","int","int","int","int","int","int","int","int","int","int","int","int","int","int","int","int","int","int","int","int","int","int","int","int","int","int","int","int","int","int","int","int","int","int","int","int","int","int","int","int","int","int","int","int","int","int","int","int","int","int","int","int","int","int","int","int","int","int","int","int","int","int","int","int","int","int","int","int","int","int","int","int","int","int","int","int","int","int","int","int","int","int","int","int","int","int","int","int","int","int","int","int","int","int","int","int","int","int","int","int","int","int","int","int","int","int","int","int","int","int","int","int","int","int","int","int"],"gradient_booster":{"model":{"gbtree_model_param":{"num_parallel_tree":"1","num_trees":"10"},"iteration_indptr":[0,1,2,3,4,5,6,7,8,9,10],"tree_info":[0,0,0,0,0,0,0,0,0,0],"trees":[{"base_weights":[-1.9474854E-1,-6.677446E-1,4.3540187E0,-8.8506854E-1,3.4714868E0,4.389733E0,-8.739085E-1,3.2869143E0,-9.878537E-1,4.181064E0,7.175788E-1,4.3986125E0,1.5444084E0,1.3290195E-1,4.2169995E0,-1.0421551E0,3.0805109E0,4.294235E0,8.1355333E-1,-4.1492963E-1,3.6581128E0,2.0929685E0,-9.385469E-1,4.266245E0,1.0899642E0,-1.1322149E0,7.110412E-1,3.9653988E0,-1.1219126E0,4.317159E0,1.5444084E0,-8.739085E-1,2.1621008E0,-7.606346E-1,2.1621008E0,3.914902E0,8.046158E-1,2.491087E0,1.8995735E-1,-4.521861E-2,-1.1583244E0,-1.1634728E0,2.7707224E0,1.7795027E0,-6.847325E-1,4.2560844E0,4.4731486E-1,-1.0649728E0,4.9902338E-1,2.814369E0,9.165169E-1,8.046158E-1,-7.523706E-1,-1.1843746E0,4.0437975E0,3.8997943E0,-1.0717769E0,3.0131469E0,1.1028233E0,-8.876663E-1,1.2494518E0,-7.889445E-1,1.7813668E0,1.8995735E-1,-1.1620209E0,1.4064084E0,-8.2086736E-1,2.8438666E0,-1.195371E0,4.096905E0,1.1555163E0,3.177923E0,-6.605108E-1,5.8215165E-1,3.2438033E0,1.8562727E0,-1.0333973E0,2.7397177E0,-6.579593E-1,-1.2137662E0,-1.7213523E-1,-2.6004604E-1,2.4399743E0,-7.523706E-1,3.7445302E0,-1.2143635E0,1.0770278E0,3.3558176E0,-6.605108E-1,2.7103996E-1,3.1068554E0,3.5022562E0,9.165169E-1,2.2697423E0,6.3996077E-1,-1.1013223E0,1.0899642E0,-1.7213523E-1,-7.889445E-1,-1.2243401E0,1.0809169E0,2.1228538E0,-8.158984E-1,3.5639236E0,2.7162772E-1,8.447115E-1,-1.1080725E0,-1.1351775E0,3.1624028E-1,-1.2514827E0,-6.8412006E-1,3.0408123E0,-1.0950205E0,3.5049422E0,5.43936E-1,3.7773198E-1,-1.117955E0,3.7323992E0,1.8995735E-1,4.7971067E-1,2.7808862E0,-1.1785111E0,-1.7213523E-1,-1.1695796E0,8.207315E-2,-1.2549043E0,7.607037E-1,1.6375414E0,-7.99414E-1,3.42305E0,9.165169E-1,1.7713847E0,-8.000716E-1,3.8290985E0,1.0899642E0,9.0464175E-2,2.3356516E0,3.148361E0,8.046158E-1,-6.444518E-1,-1.2610384E0,-1.260147E0,-3.149727E-1,2.7110848E0,-9.1619486E-1,-1.6418462E-1,2.4142487E0,-8.7198144E-1,2.5749705E0,8.207315E-2,2.4679291E0,-9.342778E-1,-1.7213523E-1,1.3337388E0,3.9329E0,8.256633E-1,-6.0999E-1,2.8580356E0,3.1624028E-1,-1.02714E0,1.2929913E0,5.70805E-2,-1.2620516E0,1.3849496E0,-1.1731309E0,3.148361E0,1.8995735E-1,-2.8911993E-1,-1.0317562E0,-3.0997223E-1,1.8905306E0,-1.0467849E0,6.309097E-1,-1.7213523E-1,-1.1219126E0,1.3337388E0,-8.961807E-1,-1.1614972E0,-1.2888787E0,2.6578631E0,-5.508286E-1,-7.80718E-1,1.2811962E0,-1.0799884E0,1.3337388E0,-8.639802E-1,1.2929913E0,2.4871767E0,-2.6004604E-1,-1.1360842E0,-1.7213523E-1,1.7509607E0,-7.523706E-1,-1.2212104E0,-8.3740294E-1,-6.605108E-1,-1.7213523E-1,-1.102004E0,3.3493766E-1,2.2329876E0,-8.489734E-1,-1.1078616E0,2.7162772E-1,-1.7213523E-1,-9.919838E-1,3.0033185E0,3.1624028E-1,-1.2275511E0,8.046158E-1,2.4871767E0,-1.0169402E0,-1.212118E0,3.1624028E-1,1.1581117E0,-8.489734E-1,3.148361E0,2.7162772E-1,-1.1272283E0,3.1624028E-1,-1.2379415E0,8.461092E-3,3.2669196E0,-1.7213523E-1,-2.4432692E-1,-1.1369365E0,2.3221927E0,-7.1004945E-1,-6.477752E-1,-1.1997776E0,-1.2443528E0,4.9929503E-1,1.7813668E0,-9.5069623E-1,-8.000827E-1,1.8901818E0,-1.1875753E0,1.03707716E-1,-8.214116E-1,8.046158E-1,-7.07298E-1,-1.2583445E0,-1.2486218E0,1.8995735E-1,-1.0555499E0,8.046158E-1,-1.5989327E-1,-1.2276219E0,-7.889445E-1,1.0899642E0,-9.4353026E-1,3.1624028E-1,-1.1583244E0,1.7813668E0],"categories":[],"categories_nodes":[],"categories_segments":[],"categories_sizes":[],"default_left":[0,0,0,0,0,0,0,0,0,0,0,0,0,0,0,0,0,0,0,0,0,0,0,0,0,0,0,0,0,0,0,0,0,0,0,0,0,0,0,0,0,0,0,0,0,0,0,0,0,0,0,0,0,0,0,0,0,0,0,0,0,0,0,0,0,0,0,0,0,0,0,0,0,0,0,0,0,0,0,0,0,0,0,0,0,0,0,0,0,0,0,0,0,0,0,0,0,0,0,0,0,0,0,0,0,0,0,0,0,0,0,0,0,0,0,0,0,0,0,0,0,0,0,0,0,0,0,0,0,0,0,0,0,0,0,0,0,0,0,0,0,0,0,0,0,0,0,0,0,0,0,0,0,0,0,0,0,0,0,0,0,0,0,0,0,0,0,0,0,0,0,0,0,0,0,0,0,0,0,0,0,0,0,0,0,0,0,0,0,0,0,0,0,0,0,0,0,0,0,0,0,0,0,0,0,0,0,0,0,0,0,0,0,0,0,0,0,0,0,0,0,0,0,0,0,0,0,0,0,0,0,0,0,0,0,0,0,0,0,0,0,0,0,0,0,0,0,0,0,0,0,0,0],"id":0,"left_children":[1,3,5,7,9,11,-1,13,15,17,19,-1,-1,21,23,25,27,29,31,33,35,37,39,-1,-1,41,43,45,-1,-1,-1,-1,-1,47,-1,-1,-1,49,-1,51,-1,53,55,57,59,-1,61,63,65,-1,-1,-1,-1,67,-1,69,-1,71,73,75,77,-1,-1,-1,79,81,-1,83,85,-1,-1,87,-1,89,91,93,95,-1,97,-1,-1,-1,-1,-1,-1,99,101,103,-1,105,-1,-1,-1,-1,-1,107,-1,-1,-1,109,111,113,115,117,-1,119,121,123,-1,125,127,129,-1,-1,131,-1,-1,133,-1,135,137,-1,-1,139,-1,141,143,145,147,-1,-1,149,151,153,-1,155,157,-1,-1,159,-1,161,163,-1,-1,-1,165,167,-1,-1,-1,-1,-1,-1,-1,169,171,-1,-1,173,-1,175,177,179,-1,-1,-1,181,183,185,187,189,191,-1,-1,-1,-1,193,-1,-1,195,197,199,201,-1,203,-1,205,-1,-1,-1,-1,-1,207,209,-1,-1,211,213,215,-1,217,-1,-1,-1,-1,-1,219,-1,221,223,-1,-1,225,-1,-1,-1,227,-1,229,231,-1,-1,233,235,-1,-1,237,239,241,-1,-1,-1,243,-1,245,247,249,-1,251,-1,-1,-1,-1,-1,-1,-1,-1,-1,-1,-1,-1,-1],"loss_changes":[7.612593E3,2.885761E3,6.6061035E1,1.3092185E3,3.0977734E2,1.5737305E0,0E0,2.1493243E2,6.600117E2,4.4930176E1,1.14742455E2,0E0,0E0,3.9265835E1,4.0808105E0,4.6416235E2,1.5100977E2,1.0671387E0,1.4098237E1,2.4312527E1,3.8517456E0,4.517439E0,2.3378725E0,0E0,0E0,3.4379785E2,2.1596715E2,3.161615E1,0E0,0E0,0E0,0E0,0E0,9.415591E0,0E0,0E0,0E0,1.5154266E-1,0E0,2.67533E0,0E0,3.0629883E2,1.01690445E2,6.49957E1,2.589928E1,0E0,7.373997E0,2.5327568E0,7.370775E0,0E0,0E0,0E0,0E0,1.256521E2,0E0,4.7792664E0,0E0,1.9297943E1,5.878492E1,2.500927E1,2.0030827E1,0E0,0E0,0E0,7.0085716E-1,6.5671263E0,0E0,2.8112022E1,1.2012451E2,0E0,0E0,2.090213E1,0E0,3.4503365E1,3.0627518E0,1.9186974E-1,9.201584E0,0E0,9.449339E-2,0E0,0E0,0E0,0E0,0E0,0E0,6.3854492E1,4.7955193E1,1.5923279E1,0E0,3.3498604E1,0E0,0E0,0E0,0E0,0E0,2.9626923E0,0E0,0E0,0E0,3.901831E1,5.5993637E1,3.151892E1,3.6785889E0,1.3258026E1,0E0,1.9608858E1,6.227732E-1,2.3240356E0,0E0,1.8772705E1,3.6722206E1,2.3532257E0,0E0,0E0,1.5164571E1,0E0,0E0,1.7925415E0,0E0,1.867454E1,7.2901535E-1,0E0,0E0,1.6755753E0,0E0,1.2336426E1,1.888857E1,9.614635E0,3.3273514E1,0E0,0E0,5.2885666E0,2.3244762E-1,4.8583984E-1,0E0,1.2168047E1,3.8348389E0,0E0,0E0,8.542292E0,0E0,6.5180664E0,2.4479002E1,0E0,0E0,0E0,7.021969E0,1.1323151E1,0E0,0E0,0E0,0E0,0E0,0E0,0E0,1.4464006E1,7.2592063E0,0E0,0E0,5.1042557E-1,0E0,6.8744903E0,5.4245605E0,1.5544317E1,0E0,0E0,0E0,2.279877E1,1.2570663E1,6.8118796E0,8.42696E0,5.371361E-1,7.1949835E0,0E0,0E0,0E0,0E0,9.63031E0,0E0,0E0,1.486516E-2,8.300298E0,1.6313192E1,3.923561E0,0E0,3.0436373E-1,0E0,4.474867E0,0E0,0E0,0E0,0E0,0E0,6.930481E0,5.554721E1,0E0,0E0,3.1026E0,6.552085E0,8.463575E0,0E0,2.9603271E0,0E0,0E0,0E0,0E0,0E0,5.9386597E0,0E0,1.0601004E1,7.601059E0,0E0,0E0,9.898806E0,0E0,0E0,0E0,2.4703827E0,0E0,5.7197876E0,9.926007E0,0E0,0E0,1.65758E1,4.727257E0,0E0,0E0,4.303589E0,1.4151077E0,3.0315552E0,0E0,0E0,0E0,5.2675834E0,0E0,2.7047806E0,4.1997566E0,2.1595612E0,0E0,1.4160803E1,0E0,0E0,0E0,0E0,0E0,0E0,0E0,0E0,0E0,0E0,0E0,0E0,0E0],"parents":[2147483647,0,0,1,1,2,2,3,3,4,4,5,5,7,7,8,8,9,9,10,10,13,13,14,14,15,15,16,16,17,17,18,18,19,19,20,20,21,21,22,22,25,25,26,26,27,27,33,33,37,37,39,39,41,41,42,42,43,43,44,44,46,46,47,47,48,48,53,53,55,55,57,57,58,58,59,59,60,60,64,64,65,65,67,67,68,68,71,71,73,73,74,74,75,75,76,76,78,78,85,85,86,86,87,87,89,89,95,95,99,99,100,100,101,101,102,102,103,103,105,105,106,106,107,107,109,109,110,110,111,111,114,114,117,117,119,119,120,120,123,123,125,125,126,126,127,127,128,128,131,131,132,132,133,133,135,135,136,136,139,139,141,141,142,142,146,146,147,147,155,155,156,156,159,159,161,161,162,162,163,163,167,167,168,168,169,169,170,170,171,171,172,172,177,177,180,180,181,181,182,182,183,183,185,185,187,187,193,193,194,194,197,197,198,198,199,199,201,201,207,207,209,209,210,210,213,213,217,217,219,219,220,220,223,223,224,224,227,227,228,228,229,229,233,233,235,235,236,236,237,237,239,239],"right_children":[2,4,6,8,10,12,-1,14,16,18,20,-1,-1,22,24,26,28,30,32,34,36,38,40,-1,-1,42,44,46,-1,-1,-1,-1,-1,48,-1,-1,-1,50,-1,52,-1,54,56,58,60,-1,62,64,66,-1,-1,-1,-1,68,-1,70,-1,72,74,76,78,-1,-1,-1,80,82,-1,84,86,-1,-1,88,-1,90,92,94,96,-1,98,-1,-1,-1,-1,-1,-1,100,102,104,-1,106,-1,-1,-1,-1,-1,108,-1,-1,-1,110,112,114,116,118,-1,120,122,124,-1,126,128,130,-1,-1,132,-1,-1,134,-1,136,138,-1,-1,140,-1,142,144,146,148,-1,-1,150,152,154,-1,156,158,-1,-1,160,-1,162,164,-1,-1,-1,166,168,-1,-1,-1,-1,-1,-1,-1,170,172,-1,-1,174,-1,176,178,180,-1,-1,-1,182,184,186,188,190,192,-1,-1,-1,-1,194,-1,-1,196,198,200,202,-1,204,-1,206,-1,-1,-1,-1,-1,208,210,-1,-1,212,214,216,-1,218,-1,-1,-1,-1,-1,220,-1,222,224,-1,-1,226,-1,-1,-1,228,-1,230,232,-1,-1,234,236,-1,-1,238,240,242,-1,-1,-1,244,-1,246,248,250,-1,252,-1,-1,-1,-1,-1,-1,-1,-1,-1,-1,-1,-1,-1],"split_conditions":[1E0,1E0,1E0,6E0,2E0,1.3E1,-8.739085E-1,1E0,1.000001E6,3E0,3E0,4.3986125E0,1.5444084E0,4E0,2E0,1E0,1E0,1E0,4.12E2,5.0831776E0,1E0,1E0,5E0,4.266245E0,1.0899642E0,1E0,3E0,3E0,-1.1219126E0,4.317159E0,1.5444084E0,-8.739085E-1,2.1621008E0,1E0,2.1621008E0,3.914902E0,8.046158E-1,6E0,1.8995735E-1,1.291352E0,-1.1583244E0,5.7357225E0,1E0,1E0,9E0,4.2560844E0,1E0,1E0,1E0,2.814369E0,9.165169E-1,8.046158E-1,-7.523706E-1,2.845351E0,4.0437975E0,8E0,-1.0717769E0,1E0,3.9E1,4.3622613E0,2E0,-7.889445E-1,1.7813668E0,1.8995735E-1,1.1E1,3E0,-8.2086736E-1,1E0,1E0,4.096905E0,1.1555163E0,1E0,-6.605108E-1,7.3E1,3E0,7.6E1,7E0,2.7397177E0,6.04E2,-1.2137662E0,-1.7213523E-1,-2.6004604E-1,2.4399743E0,-7.523706E-1,3.7445302E0,1E0,2E0,1E0,-6.605108E-1,1.98E2,3.1068554E0,3.5022562E0,9.165169E-1,2.2697423E0,6.3996077E-1,7.219281E-1,1.0899642E0,-1.7213523E-1,-7.889445E-1,1E0,1E0,1E0,3.9701755E0,4.3E1,2.7162772E-1,4.6841836E0,4.7604666E0,7.4E1,3.1624028E-1,1E0,3.8645442E0,1.8E1,-1.0950205E0,3.5049422E0,1.7E1,3.7773198E-1,-1.117955E0,1E0,1.8995735E-1,1E0,5.486593E0,-1.1785111E0,-1.7213523E-1,1E0,8.207315E-2,1E0,1E0,9E0,1.3304134E1,3.42305E0,9.165169E-1,6E0,8.2E1,2E0,1.0899642E0,6.5E1,2.3E1,3.148361E0,8.046158E-1,2E0,-1.2610384E0,2.5849626E0,1E0,2.7110848E0,-9.1619486E-1,-1.6418462E-1,1E0,7E0,2.5749705E0,8.207315E-2,2.4679291E0,-9.342778E-1,-1.7213523E-1,1.3337388E0,3.9329E0,4.4197154E0,1.1E1,2.8580356E0,3.1624028E-1,7.204537E-1,1.2929913E0,1E0,1E0,2E0,-1.1731309E0,3.148361E0,1.8995735E-1,1.2E1,4E0,3E0,1E0,8E0,6.5E1,-1.7213523E-1,-1.1219126E0,1.3337388E0,-8.961807E-1,1.1E1,-1.2888787E0,2.6578631E0,1.06E2,1E0,1E0,4.9541965E0,1.3337388E0,8E0,1.2929913E0,1.0262169E0,-2.6004604E-1,-1.1360842E0,-1.7213523E-1,1.7509607E0,-7.523706E-1,3E0,3.6E1,-6.605108E-1,-1.7213523E-1,1.0349945E0,3E0,1E0,-8.489734E-1,1.1E1,2.7162772E-1,-1.7213523E-1,-9.919838E-1,3.0033185E0,3.1624028E-1,4.3E1,8.046158E-1,1E0,1E0,-1.212118E0,3.1624028E-1,3.958229E0,-8.489734E-1,3.148361E0,2.7162772E-1,7.56208E-1,3.1624028E-1,1E0,8.6E1,3.2669196E0,-1.7213523E-1,1E0,1.34E2,2.3221927E0,-7.1004945E-1,5.1406813E0,1E0,2E0,4.9929503E-1,1.7813668E0,-9.5069623E-1,1E0,1.8901818E0,1E1,4.9E1,1.8E1,8.046158E-1,1.6E1,-1.2583445E0,-1.2486218E0,1.8995735E-1,-1.0555499E0,8.046158E-1,-1.5989327E-1,-1.2276219E0,-7.889445E-1,1.0899642E0,-9.4353026E-1,3.1624028E-1,-1.1583244E0,1.7813668E0],"split_indices":[120,129,100,1,105,70,0,39,1,52,91,0,0,1,105,16,124,106,1,8,124,21,1,0,0,131,105,105,0,0,0,0,0,130,0,0,0,4,0,5,0,7,107,53,95,0,125,21,44,0,0,0,0,7,0,105,0,61,4,7,45,0,0,0,69,129,0,39,128,0,0,106,0,79,80,1,133,0,0,0,0,0,0,0,0,2,105,124,0,1,0,0,0,0,0,9,0,0,0,66,19,46,8,79,0,8,8,62,0,51,7,0,0,0,20,0,0,107,0,69,5,0,0,22,0,122,18,4,5,0,0,24,0,39,0,1,79,0,0,23,0,8,124,0,0,0,105,20,0,0,0,0,0,0,0,5,71,0,0,10,0,21,100,45,0,0,0,39,133,71,60,40,0,0,0,0,0,74,0,0,0,71,124,8,0,0,0,10,0,0,0,0,0,130,1,0,0,10,3,40,0,52,0,0,0,0,0,71,0,79,105,0,0,8,0,0,0,10,0,125,1,0,0,50,105,0,0,7,25,133,0,0,0,91,0,76,4,3,0,39,0,0,0,0,0,0,0,0,0,0,0,0,0],"split_type":[0,0,0,0,0,0,0,0,0,0,0,0,0,0,0,0,0,0,0,0,0,0,0,0,0,0,0,0,0,0,0,0,0,0,0,0,0,0,0,0,0,0,0,0,0,0,0,0,0,0,0,0,0,0,0,0,0,0,0,0,0,0,0,0,0,0,0,0,0,0,0,0,0,0,0,0,0,0,0,0,0,0,0,0,0,0,0,0,0,0,0,0,0,0,0,0,0,0,0,0,0,0,0,0,0,0,0,0,0,0,0,0,0,0,0,0,0,0,0,0,0,0,0,0,0,0,0,0,0,0,0,0,0,0,0,0,0,0,0,0,0,0,0,0,0,0,0,0,0,0,0,0,0,0,0,0,0,0,0,0,0,0,0,0,0,0,0,0,0,0,0,0,0,0,0,0,0,0,0,0,0,0,0,0,0,0,0,0,0,0,0,0,0,0,0,0,0,0,0,0,0,0,0,0,0,0,0,0,0,0,0,0,0,0,0,0,0,0,0,0,0,0,0,0,0,0,0,0,0,0,0,0,0,0,0,0,0,0,0,0,0,0,0,0,0,0,0,0,0,0,0,0,0],"sum_hessian":[3.5358403E3,3.2035752E3,3.322653E2,3.044514E3,1.5906131E2,3.3017007E2,2.0952094E0,7.245932E1,2.9720544E3,1.2606176E2,3.2999546E1,3.2859866E2,1.5714071E0,1.6761675E1,5.5697647E1,2.9336423E3,3.841217E1,1.2169675E2,4.3650193E0,2.4444109E1,8.555438E0,5.587225E0,1.117445E1,5.4475445E1,1.2222054E0,2.7906443E3,1.4299803E2,3.1777342E1,6.6348295E0,1.20125336E2,1.5714071E0,2.0952094E0,2.2698102E0,2.21743E1,2.2698102E0,7.5078335E0,1.0476047E0,4.3650193E0,1.2222054E0,2.4444108E0,8.730039E0,2.7691685E3,2.1475897E1,8.0840164E1,6.215788E1,2.915833E1,2.6190116E0,1.7983881E1,4.1904187E0,2.9682133E0,1.3968062E0,1.0476047E0,1.3968062E0,2.758867E3,1.0301446E1,1.6587074E1,4.8888216E0,2.7412323E1,5.3427837E1,5.6745255E1,5.4126244E0,1.5714071E0,1.0476047E0,1.2222054E0,1.6761675E1,2.4444108E0,1.7460078E0,6.8094306E0,2.7520574E3,1.5015667E1,1.5714071E0,2.6364717E1,1.0476047E0,4.3999397E1,9.428442E0,2.2698102E0,5.4475445E1,2.7936125E0,2.6190116E0,1.571407E1,1.0476047E0,1.2222054E0,1.2222054E0,1.3968062E0,5.4126244E0,2.7297085E3,2.23489E1,2.5317114E1,1.0476047E0,4.015818E1,3.841217E0,8.031636E0,1.3968062E0,1.0476047E0,1.2222054E0,5.325324E1,1.2222054E0,1.0476047E0,1.5714071E0,2.7183596E3,1.13490505E1,1.4317264E1,8.031636E0,2.3571106E1,1.7460078E0,2.8634527E1,1.1523651E1,5.2205635E1,1.0476047E0,2.5870598E3,1.3129979E2,5.7618256E0,5.587225E0,6.984031E0,7.333233E0,1.5714071E0,6.460229E0,2.23489E1,1.2222054E0,2.5142513E1,3.4920156E0,1.0476047E1,1.0476047E0,5.0808826E1,1.3968062E0,2.583044E3,4.015818E0,5.587225E0,1.2571256E2,4.3650193E0,1.3968062E0,3.6666164E0,3.6666164E0,2.1126694E1,1.2222054E0,2.1650497E1,3.4920156E0,2.4444108E0,1.0476047E0,8.730039E0,4.207879E1,2.5683774E3,1.4666466E1,1.5714071E0,2.4444108E0,1.9206085E0,3.6666164E0,1.23791954E2,1.9206085E0,1.3968062E0,2.2698102E0,2.6190116E0,1.0476047E0,1.3968062E0,1.9729889E1,1.0476047E1,1.117445E1,2.4444108E0,1.0476047E0,7.682434E0,1.0476047E0,3.6666164E0,2.564711E3,4.714221E0,9.952245E0,2.4444108E0,1.2222054E0,2.7237722E1,9.655423E1,5.4126244E0,5.0634227E0,8.380837E0,2.7936125E0,1.0476047E0,6.6348295E0,1.3968062E0,2.2698102E0,5.494686E2,2.0152422E3,2.6190116E0,2.0952094E0,2.1126694E1,6.1110272E0,9.5157425E1,1.3968062E0,4.3650193E0,1.0476047E0,3.841217E0,1.2222054E0,7.333233E0,1.0476047E0,1.3968062E0,1.3968062E0,4.6164447E2,8.7824196E1,1.0476047E0,1.0476047E0,1.6412474E1,4.714221E0,4.1904187E0,1.9206085E0,9.3411415E1,1.7460078E0,1.0476047E0,3.3174148E0,2.7936125E0,1.0476047E0,4.6059686E2,1.0476047E0,3.841217E0,8.398298E1,1.5364868E1,1.0476047E0,2.7936125E0,1.9206085E0,2.4444108E0,1.7460078E0,9.2363815E1,1.0476047E0,4.5675565E2,3.841217E0,2.7936125E0,1.0476047E0,1.1698253E1,7.228472E1,1.5714071E0,1.2222054E0,1.344426E1,7.8919556E1,4.5535883E2,1.3968062E0,1.0476047E0,2.7936125E0,9.777643E0,1.9206085E0,6.949111E1,2.7936125E0,1.2396655E1,1.0476047E0,9.777643E0,6.914191E1,4.5413663E2,1.2222054E0,8.730039E0,1.0476047E0,2.7936125E0,6.6697495E1,1.5714071E0,1.2222054E0,1.13490505E1,1.0476047E0,8.730039E0,1.0476047E0],"tree_param":{"num_deleted":"0","num_feature":"136","num_nodes":"253","size_leaf_vector":"1"}},{"base_weights":[-7.305776E-1,-2.561728E-1,-1.077491E0,-4.806697E-1,8.4242755E-1,-1.0787201E0,-3.703755E-1,-6.1916727E-1,5.299935E-1,4.5445487E-1,1.0158205E0,-9.5746845E-1,-4.2240262E-1,8.5974735E-1,-6.434046E-1,8.5354704E-1,-6.202068E-1,1.0292367E0,2.1260959E-1,5.3045964E-1,-1.0017749E0,1.2152895E-1,-8.0707294E-1,1.1387581E0,1.4651516E-2,-1.0452601E0,6.962828E-1,1.0019339E0,2.1584514E-1,-1.1340054E0,7.98941E-1,1.0396112E0,1.9552696E-1,-7.1448135E-1,1.1005881E0,-1.0258597E0,4.1021925E-1,7.7653813E-1,-2.7665064E-1,-8.3271E-1,7.392859E-1,-3.2958415E-1,1.1942873E0,-7.800923E-1,7.437784E-1,2.9455924E-1,-1.375224E0,-2.157796E-1,1.132041E0,1.264699E0,6.1401117E-1,-5.131189E-1,6.9945496E-1,-1.5632187E0,3.2685E-1,1.0665665E0,1.422453E-1,3.4347266E-1,1.0475782E0,-1.062484E0,-2.6620194E-1,1.6820648E0,-9.04618E-1,9.82847E-1,-7.252384E-1,-5.261169E-1,6.1941856E-1,-4.8758078E-1,-9.6287215E-1,-3.9674616E-1,1.5233611E0,1.9201182E-1,1.2208327E0,-1.2230185E0,6.781957E-1,1.0609586E0,-4.2570196E-2,-4.904276E-1,-1.4717021E0,1.3315188E0,3.8827038E-1,8.9773506E-1,6.449468E-2,-2.172344E0,-8.980902E-1,-1.0779036E0,3.2268676E-1,8.00331E-1,-7.753352E-1,8.656472E-1,2.6270876E0,-8.7079537E-1,-5.4967538E-2,-6.9569063E-1,3.4492433E-1,7.8802884E-1,-5.608278E-1,-6.555606E-1,2.5828514E-1,-9.8546755E-1,3.0832383E-1,-4.7045282E-1,4.1089052E-1,7.2369415E-1,1.5899773E0,-6.30878E-1,4.792688E-1,-1.0840086E0,-2.5996143E-1,-8.951371E-1,-9.839564E-2,9.3228173E-1,-3.5559025E-1,-5.5739987E-1,-1.6059285E0,1.3431247E0,-4.8371336E-1,-5.245265E-1,1.0046749E0,-7.5816226E-1,7.658728E-1,1.3945224E0,-5.534267E-1,-1.0084747E0,-6.1377663E-2,1.3367052E-1,5.8798784E-1,-1.0939784E0,-4.5492718E-1,1.0983825E0,2.409437E-1,-6.835059E-1,4.9471167E-1,-2.2555258E0,-4.1648543E-1,2.5493556E-1,1.5902524E0,-9.768589E-1,4.7588813E-1,1.1542819E0,-1.7871562E-1,-2.9948622E-1,-1.1767914E0,9.2179E-1,2.3195267E-1,-1.7508699E-1,1.9674923E0,-7.1645296E-1,1.258414E-1,2.8209155E-2,-1.0250909E0,6.113853E-1,-6.874331E-1,1.5170684E-1,-7.1453756E-1,1.1555779E0,6.600045E-2,-5.861917E-1,6.707825E-1,-3.7519E-1,-1.0701947E0,7.9289913E-1,-3.319932E-1,-6.922729E-1,-2.983045E0,-8.598827E-2,-5.747456E-1,-3.7472405E-2,-1.2802141E0,1.2314157E0,3.12996E-1,-6.947869E-1,7.067833E-1,-3.921235E-2,-1.2576443E0,-8.1911737E-1,-1.5671217E-1,7.758756E-2,-1.0388619E0,1.6335301E0,8.942248E-1,-9.28456E-1,5.2591406E-2,8.63581E-1,-1.0468065E-1,-5.278355E-1,6.428072E-1,-1.7410767E-1,-1.1428188E0,3.3613732E-1,1.3242099E0,4.365193E-1,-1.0001498E0,1.1277387E0,-4.636952E-1,-1.3295484E0,-1.4180723E-1,-1.1291089E0,-7.469096E-1,1.7843477E0,4.7953978E-1,1.0103223E0,3.0200574E-1,-7.042864E-1,4.104687E-1,1.2346193E0,-2.231983E-1,-2.851822E-1,-1.1861634E0,-7.3732674E-1,1.2717592E0,-1.0916255E0,-1.5584244E-1,-1.08015604E-1,1.593786E0,-1.8418096E0,-1.0135647E0,-1.141208E0,-1.8239072E-1,-2.3859803E-1,-1.0398759E0,1.958025E0,5.018412E-1,7.3727566E-1,-4.7573578E-1,-8.7645173E-1,4.1658705E-1,8.771908E-1,-2.9164466E-1,-1.2321364E0,-4.050745E-1,-7.574925E-1,-2.6480136E0,-1.1026694E0,-2.0262856E0,-5.283441E-1,7.0320094E-1,-1.1114671E0,2.2661576E-2,9.298655E-1,2.4708834E0,-9.963038E-1,1.7283225E-1,9.650315E-1,-3.5755756E-1,-1.1154523E0,-2.0817338E-1,1.6669852E-1,-9.264538E-1,-1.2736337E-1,1.1929996E0,-1.0914791E0,7.076983E-2,1.2326972E0,-7.9145557E-1,-2.8291145E-1,-1.0342851E0,-1.189706E0,1.7678719E-2,-1.2542859E0,-2.442359E-1,-1.3345828E0,-3.4275696E-1,-1.4984093E0,-5.8796626E-1],"categories":[],"categories_nodes":[],"categories_segments":[],"categories_sizes":[],"default_left":[0,0,0,0,0,0,0,0,0,0,0,0,0,0,0,0,0,0,0,0,0,0,0,0,0,0,0,0,0,0,0,0,0,0,0,0,0,0,0,0,0,0,0,0,0,0,0,0,0,0,0,0,0,0,0,0,0,0,0,0,0,0,0,0,0,0,0,0,0,0,0,0,0,0,0,0,0,0,0,0,0,0,0,0,0,0,0,0,0,0,0,0,0,0,0,0,0,0,0,0,0,0,0,0,0,0,0,0,0,0,0,0,0,0,0,0,0,0,0,0,0,0,0,0,0,0,0,0,0,0,0,0,0,0,0,0,0,0,0,0,0,0,0,0,0,0,0,0,0,0,0,0,0,0,0,0,0,0,0,0,0,0,0,0,0,0,0,0,0,0,0,0,0,0,0,0,0,0,0,0,0,0,0,0,0,0,0,0,0,0,0,0,0,0,0,0,0,0,0,0,0,0,0,0,0,0,0,0,0,0,0,0,0,0,0,0,0,0,0,0,0,0,0,0,0,0,0,0,0,0,0,0,0,0,0,0,0,0,0,0,0,0,0,0,0,0,0,0,0,0,0,0,0,0,0,0,0,0,0,0,0,0,0,0,0],"id":1,"left_children":[1,3,5,7,9,-1,-1,11,13,15,17,19,21,23,25,27,29,31,-1,33,35,37,39,41,43,45,47,49,51,53,55,57,-1,-1,-1,59,61,63,65,67,69,-1,71,73,75,-1,77,-1,-1,79,81,-1,-1,83,-1,-1,-1,-1,-1,85,87,-1,-1,89,91,93,95,97,99,-1,-1,-1,-1,-1,-1,-1,101,-1,-1,103,-1,-1,105,-1,-1,107,-1,-1,109,111,-1,-1,-1,113,115,117,-1,119,121,123,-1,-1,-1,-1,-1,-1,125,127,-1,-1,-1,129,-1,131,133,135,137,-1,139,141,143,145,147,149,151,-1,-1,-1,153,155,157,159,161,163,165,-1,-1,167,-1,169,-1,171,173,-1,-1,-1,-1,175,-1,-1,177,-1,-1,-1,-1,179,-1,181,183,185,187,-1,-1,-1,-1,-1,-1,-1,-1,189,-1,191,193,-1,195,-1,-1,-1,197,199,201,-1,-1,-1,-1,203,205,-1,207,-1,-1,209,211,213,-1,215,-1,217,219,221,-1,-1,223,225,227,-1,-1,-1,229,-1,-1,-1,-1,-1,-1,231,-1,233,-1,235,237,239,-1,-1,-1,241,243,-1,-1,-1,-1,-1,-1,245,-1,247,249,-1,-1,-1,-1,251,-1,-1,-1,-1,-1,253,255,-1,-1,257,-1,-1,-1,-1,-1,259,-1,261,-1,263,-1,-1,-1],"loss_changes":[2.3085944E2,1.4703252E2,3.0523682E-1,6.951474E1,6.348839E0,0E0,0E0,2.8563019E1,2.3811594E1,1.47169285E1,5.264282E-1,1.1029251E1,5.804152E1,1.1148296E1,8.134853E0,2.106121E0,7.860081E0,3.8282013E-1,0E0,4.5186515E0,5.6913757E0,3.0361172E1,7.0515747E0,3.295105E0,7.9776745E0,5.260852E0,1.744575E0,1.2249298E0,2.441462E0,5.160534E0,3.9692962E-1,1.0108948E-2,0E0,0E0,0E0,3.9646606E0,7.0628123E0,1.4333725E1,1.6560219E1,6.725647E0,3.434534E0,0E0,6.836128E-1,5.0900254E0,1.8333974E0,0E0,4.561615E-2,0E0,0E0,1.13285065E-1,1.4813879E0,0E0,0E0,4.4118023E-1,0E0,0E0,0E0,0E0,0E0,3.4515228E0,5.15796E0,0E0,0E0,5.256241E0,5.263274E-1,8.710782E0,3.6806664E0,5.9187355E0,3.6149826E0,0E0,0E0,0E0,0E0,0E0,0E0,0E0,7.7969044E-1,0E0,0E0,3.5564232E-1,0E0,0E0,1.5827188E0,0E0,0E0,4.369812E-1,0E0,0E0,4.118147E-1,3.4212704E0,0E0,0E0,0E0,5.1891994E0,8.932663E0,4.694621E0,0E0,6.0841637E0,9.213055E0,2.3512573E0,0E0,0E0,0E0,0E0,0E0,0E0,4.7231555E-2,3.964386E-1,0E0,0E0,0E0,3.901472E0,0E0,6.1085567E0,3.5755405E0,8.8729477E-1,3.402129E0,0E0,2.494193E0,6.5021763E0,3.9090514E-2,4.029924E0,7.6062787E-1,1.9354782E0,2.0300848E0,0E0,0E0,0E0,7.28271E-1,1.6344109E0,3.3473876E0,4.278776E0,1.5537635E0,1.9755878E0,1.22686744E-1,0E0,0E0,1.2137246E0,0E0,3.6773968E-1,0E0,7.800547E0,1.6359272E0,0E0,0E0,0E0,0E0,1.6080427E-1,0E0,0E0,1.7351837E0,0E0,0E0,0E0,0E0,1.9606323E0,0E0,7.8672695E-1,9.775896E-1,3.9726455E0,8.992214E-1,0E0,0E0,0E0,0E0,0E0,0E0,0E0,0E0,4.0982056E-1,0E0,5.168442E0,3.3208027E0,0E0,1.1814041E0,0E0,0E0,0E0,1.9939804E0,6.190014E-1,1.064251E0,0E0,0E0,0E0,0E0,3.7464042E0,2.0692277E0,0E0,2.353344E-1,0E0,0E0,4.4746604E0,6.8638134E-1,2.7452397E0,0E0,7.1035004E-1,0E0,7.1170044E-1,3.9784737E0,6.04681E-1,0E0,0E0,1.9387276E0,3.8280363E0,1.5459919E0,0E0,0E0,0E0,1.6958237E-2,0E0,0E0,0E0,0E0,0E0,0E0,2.2343102E0,0E0,4.6381378E-1,0E0,3.5574055E0,1.372139E0,8.301525E-1,0E0,0E0,0E0,2.1689568E0,1.6472869E0,0E0,0E0,0E0,0E0,0E0,0E0,6.5961456E-1,0E0,2.7828774E0,1.4438745E0,0E0,0E0,0E0,0E0,1.5394764E0,0E0,0E0,0E0,0E0,0E0,5.374701E0,1.3708925E-1,0E0,0E0,1.467845E0,0E0,0E0,0E0,0E0,0E0,4.3942642E-1,0E0,3.616829E-1,0E0,3.3475876E-1,0E0,0E0,0E0],"parents":[2147483647,0,0,1,1,2,2,3,3,4,4,7,7,8,8,9,9,10,10,11,11,12,12,13,13,14,14,15,15,16,16,17,17,19,19,20,20,21,21,22,22,23,23,24,24,25,25,26,26,27,27,28,28,29,29,30,30,31,31,35,35,36,36,37,37,38,38,39,39,40,40,42,42,43,43,44,44,46,46,49,49,50,50,53,53,59,59,60,60,63,63,64,64,65,65,66,66,67,67,68,68,76,76,79,79,82,82,85,85,88,88,89,89,93,93,94,94,95,95,97,97,98,98,99,99,106,106,107,107,111,111,113,113,114,114,115,115,116,116,118,118,119,119,120,120,121,121,122,122,123,123,124,124,128,128,129,129,130,130,131,131,132,132,133,133,134,134,137,137,139,139,141,141,142,142,147,147,150,150,155,155,157,157,158,158,159,159,160,160,169,169,171,171,172,172,174,174,178,178,179,179,180,180,185,185,186,186,188,188,191,191,192,192,193,193,195,195,197,197,198,198,199,199,202,202,203,203,204,204,208,208,215,215,217,217,219,219,220,220,221,221,225,225,226,226,233,233,235,235,236,236,241,241,247,247,248,248,251,251,257,257,259,259,261,261],"right_children":[2,4,6,8,10,-1,-1,12,14,16,18,20,22,24,26,28,30,32,-1,34,36,38,40,42,44,46,48,50,52,54,56,58,-1,-1,-1,60,62,64,66,68,70,-1,72,74,76,-1,78,-1,-1,80,82,-1,-1,84,-1,-1,-1,-1,-1,86,88,-1,-1,90,92,94,96,98,100,-1,-1,-1,-1,-1,-1,-1,102,-1,-1,104,-1,-1,106,-1,-1,108,-1,-1,110,112,-1,-1,-1,114,116,118,-1,120,122,124,-1,-1,-1,-1,-1,-1,126,128,-1,-1,-1,130,-1,132,134,136,138,-1,140,142,144,146,148,150,152,-1,-1,-1,154,156,158,160,162,164,166,-1,-1,168,-1,170,-1,172,174,-1,-1,-1,-1,176,-1,-1,178,-1,-1,-1,-1,180,-1,182,184,186,188,-1,-1,-1,-1,-1,-1,-1,-1,190,-1,192,194,-1,196,-1,-1,-1,198,200,202,-1,-1,-1,-1,204,206,-1,208,-1,-1,210,212,214,-1,216,-1,218,220,222,-1,-1,224,226,228,-1,-1,-1,230,-1,-1,-1,-1,-1,-1,232,-1,234,-1,236,238,240,-1,-1,-1,242,244,-1,-1,-1,-1,-1,-1,246,-1,248,250,-1,-1,-1,-1,252,-1,-1,-1,-1,-1,254,256,-1,-1,258,-1,-1,-1,-1,-1,260,-1,262,-1,264,-1,-1,-1],"split_conditions":[1E0,7.423335E0,6E0,1E0,6.7E1,-1.0787201E0,-3.703755E-1,1E0,1E0,1E0,2E0,3E0,1E0,3E0,1E1,1E0,1.0706208E0,1.41E2,2.1260959E-1,2.25E0,1E0,1.2E1,1E0,2E0,2E0,2E0,4.7604666E0,9.883281E-1,4.421451E0,2E0,4.3E1,1.2E1,1.9552696E-1,-7.1448135E-1,1.1005881E0,1E0,1.291352E0,1E0,1E0,4.0895524E0,5.187797E0,-3.2958415E-1,6.466957E-1,2E0,4E0,2.9455924E-1,2E0,-2.157796E-1,1.132041E0,1.5849625E0,1.6E1,-5.131189E-1,6.9945496E-1,1E0,3.2685E-1,1.0665665E0,1.422453E-1,3.4347266E-1,1.0475782E0,3E0,1.6527306E0,1.6820648E0,-9.04618E-1,7E0,3.8882606E0,5.1103153E0,1.4E1,1E0,3E0,-3.9674616E-1,1.5233611E0,1.9201182E-1,1.2208327E0,-1.2230185E0,6.781957E-1,1.0609586E0,5.9E1,-4.904276E-1,-1.4717021E0,1E0,3.8827038E-1,8.9773506E-1,3.807355E0,-2.172344E0,-8.980902E-1,1.2696016E0,3.2268676E-1,8.00331E-1,2.9E1,1E0,2.6270876E0,-8.7079537E-1,-5.4967538E-2,1E0,3E0,1.5E1,-5.608278E-1,6E0,1.56E2,1E0,3.0832383E-1,-4.7045282E-1,4.1089052E-1,7.2369415E-1,1.5899773E0,-6.30878E-1,4.9036922E0,1E1,-2.5996143E-1,-8.951371E-1,-9.839564E-2,2E0,-3.5559025E-1,1E0,2E0,3.5952218E0,4.565345E0,-5.245265E-1,6E0,4.5638824E0,2E0,7E0,1.2E1,1E1,5E0,1.3367052E-1,5.8798784E-1,-1.0939784E0,2.1E1,1E0,1E0,1E0,1E0,1E0,1E0,2.5493556E-1,1.5902524E0,4.0269866E0,4.7588813E-1,3E0,-1.7871562E-1,1E0,9E0,9.2179E-1,2.3195267E-1,-1.7508699E-1,1.9674923E0,1E0,1.258414E-1,2.8209155E-2,4.1965656E0,6.113853E-1,-6.874331E-1,1.5170684E-1,-7.1453756E-1,1E0,6.600045E-2,3.9E1,1.1814549E0,1E0,2.8E1,7.9289913E-1,-3.319932E-1,-6.922729E-1,-2.983045E0,-8.598827E-2,-5.747456E-1,-3.7472405E-2,-1.2802141E0,1.2E1,3.12996E-1,3.5216405E0,4E0,-3.921235E-2,2.1E1,-8.1911737E-1,-1.5671217E-1,7.758756E-2,1E0,6E0,1.5849625E0,-9.28456E-1,5.2591406E-2,8.63581E-1,-1.0468065E-1,1E0,5.2E1,-1.7410767E-1,3.6424897E0,3.3613732E-1,1.3242099E0,2E0,1.1E1,2E0,-4.636952E-1,1E0,-1.4180723E-1,1.1E1,1E0,3.1E1,4.7953978E-1,1.0103223E0,7E0,2E0,4.3782744E0,1.2346193E0,-2.231983E-1,-2.851822E-1,1E0,-7.3732674E-1,1.2717592E0,-1.0916255E0,-1.5584244E-1,-1.08015604E-1,1.593786E0,4.7714024E0,-1.0135647E0,1E1,-1.8239072E-1,7E0,1E0,8E0,5.018412E-1,7.3727566E-1,-4.7573578E-1,4E0,5E0,8.771908E-1,-2.9164466E-1,-1.2321364E0,-4.050745E-1,-7.574925E-1,-2.6480136E0,1.5E1,-2.0262856E0,4.776547E0,4.6841836E0,-1.1114671E0,2.2661576E-2,9.298655E-1,2.4708834E0,1.66E2,1.7283225E-1,9.650315E-1,-3.5755756E-1,-1.1154523E0,-2.0817338E-1,3E0,4.393943E0,-1.2736337E-1,1.1929996E0,2.6E1,7.076983E-2,1.2326972E0,-7.9145557E-1,-2.8291145E-1,-1.0342851E0,4.982047E0,1.7678719E-2,4E0,-2.442359E-1,1.5E1,-3.4275696E-1,-1.4984093E0,-5.8796626E-1],"split_indices":[100,5,56,133,4,0,0,39,124,107,124,1,105,72,129,50,10,46,0,9,121,0,55,74,56,53,8,10,8,16,4,39,0,0,0,53,5,36,91,8,7,0,10,129,44,0,133,0,0,9,0,0,0,105,0,0,0,0,0,52,5,0,0,76,5,7,110,56,77,0,0,0,0,0,0,0,53,0,0,40,0,0,8,0,0,10,0,0,74,18,0,0,0,60,3,39,0,106,1,92,0,0,0,0,0,0,8,66,0,0,0,66,0,129,62,5,8,0,82,7,21,74,21,4,45,0,0,0,0,50,71,84,45,16,45,0,0,8,0,72,0,46,1,0,0,0,0,52,0,0,7,0,0,0,0,71,0,1,10,21,1,0,0,0,0,0,0,0,0,74,0,8,62,0,40,0,0,0,16,39,9,0,0,0,0,22,1,0,8,0,0,76,76,40,0,3,0,83,60,1,0,0,12,78,7,0,0,0,80,0,0,0,0,0,0,7,0,23,0,46,18,12,0,0,0,62,25,0,0,0,0,0,0,30,0,7,8,0,0,0,0,1,0,0,0,0,0,110,8,0,0,4,0,0,0,0,0,7,0,110,0,3,0,0,0],"split_type":[0,0,0,0,0,0,0,0,0,0,0,0,0,0,0,0,0,0,0,0,0,0,0,0,0,0,0,0,0,0,0,0,0,0,0,0,0,0,0,0,0,0,0,0,0,0,0,0,0,0,0,0,0,0,0,0,0,0,0,0,0,0,0,0,0,0,0,0,0,0,0,0,0,0,0,0,0,0,0,0,0,0,0,0,0,0,0,0,0,0,0,0,0,0,0,0,0,0,0,0,0,0,0,0,0,0,0,0,0,0,0,0,0,0,0,0,0,0,0,0,0,0,0,0,0,0,0,0,0,0,0,0,0,0,0,0,0,0,0,0,0,0,0,0,0,0,0,0,0,0,0,0,0,0,0,0,0,0,0,0,0,0,0,0,0,0,0,0,0,0,0,0,0,0,0,0,0,0,0,0,0,0,0,0,0,0,0,0,0,0,0,0,0,0,0,0,0,0,0,0,0,0,0,0,0,0,0,0,0,0,0,0,0,0,0,0,0,0,0,0,0,0,0,0,0,0,0,0,0,0,0,0,0,0,0,0,0,0,0,0,0,0,0,0,0,0,0,0,0,0,0,0,0,0,0,0,0,0,0,0,0,0,0,0,0],"sum_hessian":[1.4034181E3,5.9351874E2,8.098994E2,4.9328033E2,1.00238434E2,8.0796954E2,1.9298546E0,4.3417056E2,5.910977E1,3.2079773E1,6.815866E1,1.582398E2,2.7593076E2,4.635123E1,1.2758542E1,2.3542614E1,8.53716E0,6.6762115E1,1.3965435E0,4.25842E0,1.539814E2,1.1458679E2,1.6134395E2,3.4585308E1,1.1765924E1,9.98361E0,2.7749317E0,1.863522E1,4.9073944E0,6.415405E0,2.1217546E0,6.569762E1,1.0645E0,1.2580751E0,3.000345E0,1.5166782E2,2.3135717E0,4.296263E1,7.162416E1,1.5916664E2,2.1773176E0,1.0804332E0,3.3504875E1,5.596201E0,6.169724E0,1.9940528E0,7.9895573E0,1.0603619E0,1.7145698E0,9.762362E0,8.872858E0,1.9328761E0,2.9745183E0,4.9043803E0,1.5110246E0,1.0639985E0,1.0577562E0,1.2425063E0,6.445511E1,1.443117E2,7.356121E0,1.0340436E0,1.2795281E0,3.8077255E1,4.885377E0,5.634933E1,1.5274829E1,4.4888702E1,1.1427794E2,1.0908296E0,1.0864881E0,1.0769187E0,3.2427956E1,4.4161997E0,1.1800011E0,4.147552E0,2.0221715E0,1.3836321E0,6.605925E0,8.588324E0,1.1740382E0,5.433682E0,3.439176E0,1.3771411E0,3.527239E0,1.429423E2,1.3693973E0,2.1921191E0,5.164002E0,3.696864E1,1.1086155E0,3.7679534E0,1.1174238E0,4.7335415E1,9.013915E0,1.3656218E1,1.618612E0,3.673624E1,8.152461E0,1.12502975E2,1.7749583E0,1.0211495E0,1.0010221E0,3.69611E0,4.892214E0,1.0902859E0,2.34889E0,1.4156044E2,1.3818599E0,4.1136556E0,1.0503467E0,3.5280247E1,1.688392E0,4.2492043E1,4.843371E0,3.8070054E0,5.2069097E0,1.7333795E0,1.1922838E1,3.4698277E1,2.0379627E0,3.0979445E0,5.0545163E0,1.0968092E2,2.8220525E0,1.095619E0,1.2532712E0,1.3862447E2,2.9359748E0,2.7971132E1,7.309115E0,3.825692E1,4.2351236E0,2.5528703E0,2.2905006E0,1.080552E0,2.7264535E0,3.4275072E0,1.7794025E0,1.0606533E1,1.3163046E0,1.737574E1,1.7322538E1,1.015079E0,1.0228837E0,1.0141572E0,2.0837872E0,4.0320663E0,1.02245E0,1.7192581E0,1.0796167E2,1.3715785E0,1.4504739E0,1.004466E0,1.9315089E0,2.6389767E1,1.581365E0,2.3750594E0,4.934056E0,2.2381723E1,1.5875196E1,3.1425257E0,1.0925978E0,1.4305458E0,1.1223245E0,1.2414004E0,1.0491004E0,1.1109146E0,2.3165927E0,9.290955E0,1.3155783E0,1.2697302E1,4.6784377E0,1.2480314E0,1.6074507E1,3.0155792E0,1.0164871E0,1.2744945E0,1.0668717E2,7.4730573E0,1.891671E1,1.2511883E0,1.123871E0,3.8605893E0,1.0734664E0,1.9881979E1,2.499745E0,1.4448607E0,1.4430336E1,1.306663E0,7.984292E0,2.6075106E0,1.0089791E1,3.4677846E0,1.210653E0,1.492145E1,1.1530571E0,7.930522E1,2.7381954E1,6.126173E0,1.346884E0,1.5225867E1,3.690843E0,1.6944853E1,2.9371252E0,1.2321014E0,1.2676435E0,1.0588504E0,1.3371486E1,1.132759E0,1.4747517E0,8.839195E0,1.2505962E0,1.1600548E0,2.30773E0,3.8504393E0,1.107101E1,7.810164E1,1.2035829E0,1.067489E1,1.6707066E1,4.9316154E0,1.1945579E0,2.3998024E0,1.2910407E0,1.4877711E1,2.0671415E0,1.6145277E0,1.3225974E0,1.2082857E1,1.288628E0,2.4691265E0,1.381313E0,7.699491E1,1.1067282E0,8.4991255E0,2.1757646E0,1.5609298E1,1.0977672E0,2.5774808E0,2.3541343E0,1.3397862E1,1.479849E0,1.0656217E0,1.0015198E0,7.566656E1,1.3283476E0,3.3069463E0,5.1921787E0,1.081613E0,1.0941516E0,1.2279728E1,1.1181346E0,1.4297444E0,1.8772019E0,1.2651783E0,3.9270008E0,1.1213997E1,1.0657309E0,1.019126E1,1.0227371E0,8.939649E0,1.2516117E0,6.505292E0,2.4343565E0],"tree_param":{"num_deleted":"0","num_feature":"136","num_nodes":"265","size_leaf_vector":"1"}},{"base_weights":[-5.891406E-1,-1.8414436E-1,-1.013857E0,-3.081774E-1,7.793698E-1,-1.0170441E0,-6.9392696E-2,-7.6492286E-1,-1.21359214E-1,9.180127E-1,-1.6869216E-1,-1.0201485E0,-1.9769846E-1,-9.85058E-1,-3.5012192E-1,7.0309967E-1,-2.5196397E-1,9.443325E-1,6.3497216E-2,-1.4125918E0,7.71096E-1,-1.0049961E0,-2.3067672E-2,5.403855E-1,-6.359668E-1,9.2114395E-1,2.9075561E-2,-3.2317227E-1,9.008093E-1,3.7570935E-1,9.9533665E-1,-3.2918158E-1,-1.0193224E0,8.712998E-1,-3.7721872E-1,3.5859036E-1,-8.3298075E-1,1.0303212E0,-4.7997022E-1,-1.2912313E0,5.118076E-1,-1.6535686E-1,-7.3143214E-1,-8.93235E-2,1.0996698E0,7.054209E-1,-3.2185286E-1,-1.0282266E0,-2.9141358E-1,1.0393296E0,2.8052816E-1,-3.6227807E-1,6.8358034E-1,-6.2865937E-1,-1.3534101E0,1.1141064E0,-1.1601065E-1,8.967296E-1,-5.3095293E-1,-2.8277886E-1,5.4503334E-1,-8.087487E-1,5.474331E-1,-2.8572136E-1,-8.780984E-1,1.1604247E0,2.2149934E-1,1.0319619E0,2.0181975E-1,-2.5167184E-2,-6.646853E-1,7.845757E-1,-4.9354488E-1,-9.7630763E-1,-2.5280017E-1,1.7022873E-1,6.4259845E-1,-6.400996E-1,7.482817E-1,7.7607644E-1,1.310238E0,-1.535506E-1,8.280237E-1,1.6094479E-1,-7.478575E-1,9.7908014E-1,-4.2931178E-1,-7.826653E-1,1.764545E-1,-1.025912E0,1.457993E-1,6.273454E-1,-8.3482194E-1,-1.4167844E-1,-1.058514E0,8.775341E-1,1.47318E-1,-2.4661753E-1,9.028627E-1,1.0594381E0,-1.4414023E-1,9.739707E-1,-5.6867915E-1,-8.00181E-1,3.273376E-1,1.0536019E0,4.1865595E-2,-1.0654516E0,2.6021484E-2,-3.7579083E-1,1.1545525E0,-1.0064471E0,1.3045567E-1,-4.2320365E-1,2.4576844E-1,-3.219743E-1,9.313465E-1,2.4073417E-1,1.189584E0,1.5999685E-1,-8.687305E-1,1.6183259E-1,1.1573336E0,-1.1267459E0,-3.421057E-1,3.682236E-1,1.3693641E0,-2.1148482E-1,-9.951461E-1,-3.8537607E-1,6.0052806E-1,-9.7103006E-1,-2.8015733E-1,1.2304225E0,4.4769558E-1,3.335455E-1,-7.22872E-1,-7.314717E-1,3.5325035E-2,-2.0563826E-3,-1.17238E0,-1.0602996E0,-4.4204283E-1,3.0917153E-1,-7.678084E-1,-9.3571204E-1,9.6948E-2,1.579059E-1,-9.5941406E-1,-1.2932285E0,-3.615723E-1,-4.555985E-1,-1.1200608E0,6.2128025E-1,-8.263644E-1,7.2205377E-1,-3.0230823E-1,7.75628E-3,-1.158354E0,-6.4466447E-1,8.6278284E-1,2.9658294E-1,-8.3130205E-1,-8.2995254E-1,5.747809E-2,-1.1452382E0,-3.4583467E-1,-9.3618006E-1,-2.3010683E-1,-3.132565E-1,3.2814735E-1,-3.1024E-1,-1.2240175E0,8.4451216E-1,-5.675264E-2,-1.8133834E-1,-1.0349126E0,9.9789E-1,6.738178E-2,3.949281E-1,-3.4305337E-1,1.149311E0,-3.8949654E-2,8.259862E-1,-9.006387E-1,-9.212742E-1,1.1150351E-1,4.139256E-1,1.3206042E0,1.048747E0,2.1534994E-2,-3.241062E-1,-1.428074E0,5.261692E-1,-4.0907165E-1,4.892758E-1,1.5613128E0,-5.38669E-1,9.424728E-2,-3.669019E-2,7.204896E-1,-8.43731E-1,2.0334698E-1],"categories":[],"categories_nodes":[],"categories_segments":[],"categories_sizes":[],"default_left":[0,0,0,0,0,0,0,0,0,0,0,0,0,0,0,0,0,0,0,0,0,0,0,0,0,0,0,0,0,0,0,0,0,0,0,0,0,0,0,0,0,0,0,0,0,0,0,0,0,0,0,0,0,0,0,0,0,0,0,0,0,0,0,0,0,0,0,0,0,0,0,0,0,0,0,0,0,0,0,0,0,0,0,0,0,0,0,0,0,0,0,0,0,0,0,0,0,0,0,0,0,0,0,0,0,0,0,0,0,0,0,0,0,0,0,0,0,0,0,0,0,0,0,0,0,0,0,0,0,0,0,0,0,0,0,0,0,0,0,0,0,0,0,0,0,0,0,0,0,0,0,0,0,0,0,0,0,0,0,0,0,0,0,0,0,0,0,0,0,0,0,0,0,0,0,0,0,0,0,0,0,0,0,0,0,0,0,0,0,0,0,0,0,0,0,0,0,0,0,0,0,0,0],"id":2,"left_children":[1,3,5,7,9,11,-1,13,15,17,19,-1,-1,21,23,25,27,29,-1,-1,-1,31,-1,33,35,37,39,41,43,45,-1,-1,47,49,-1,51,53,55,-1,-1,57,59,61,-1,-1,-1,-1,-1,-1,-1,-1,-1,-1,63,-1,65,-1,67,-1,69,71,73,75,77,-1,79,-1,-1,-1,81,83,85,87,89,91,-1,-1,93,-1,95,-1,97,99,101,103,105,-1,-1,-1,107,-1,109,111,113,-1,-1,-1,115,-1,117,-1,-1,-1,119,-1,121,-1,123,-1,-1,125,-1,-1,-1,-1,127,-1,-1,-1,129,131,-1,133,-1,135,-1,-1,137,139,-1,-1,141,143,-1,-1,-1,-1,145,147,-1,149,151,153,155,-1,157,159,161,-1,-1,-1,163,165,-1,167,-1,-1,169,171,-1,-1,173,175,-1,-1,-1,-1,-1,-1,-1,-1,-1,-1,177,179,-1,-1,181,-1,183,185,187,-1,189,-1,191,193,-1,195,-1,-1,197,-1,199,201,-1,-1,-1,-1,-1,-1,-1,-1],"loss_changes":[1.08179214E2,3.8926006E1,8.543396E-1,2.443977E1,5.0447693E0,5.7714844E-1,0E0,7.2587967E0,2.2276695E1,6.734829E-1,7.6251774E0,0E0,0E0,1.0096588E0,8.087485E0,4.1367836E0,1.4894968E1,5.414791E-1,0E0,0E0,0E0,1.7501068E-1,0E0,2.737494E0,4.9011784E0,3.7639122E0,5.7323856E0,1.0722097E1,2.1881504E0,1.1940646E0,0E0,0E0,3.195572E-2,3.1719303E-1,0E0,1.3212652E0,1.2658987E0,2.0641403E0,0E0,0E0,3.1023211E0,1.0386418E1,5.0529976E0,0E0,0E0,0E0,0E0,0E0,0E0,0E0,0E0,0E0,0E0,1.131618E0,0E0,5.2303505E-1,0E0,2.7576685E-1,0E0,1.0404579E1,4.800991E0,3.886572E0,7.4377656E-3,3.5158367E0,0E0,2.3899078E-3,0E0,0E0,0E0,7.1698027E0,3.0477161E0,3.9152966E0,9.011117E-1,2.0279274E0,6.479051E0,0E0,0E0,1.2496486E0,0E0,3.438964E-1,0E0,5.800171E0,2.0797968E0,3.3563478E0,2.4506626E0,8.682499E-1,0E0,0E0,0E0,1.3770752E0,0E0,3.1831684E0,1.3616948E0,5.640218E-1,0E0,0E0,0E0,4.9976406E0,0E0,4.6360254E-1,0E0,0E0,0E0,2.600008E0,0E0,9.2826366E-1,0E0,1.001854E0,0E0,0E0,1.1283684E-1,0E0,0E0,0E0,0E0,3.544407E0,0E0,0E0,0E0,1.0329103E0,1.838604E0,0E0,1.0223389E-3,0E0,1.2393861E0,0E0,0E0,5.754255E0,1.2028708E0,0E0,0E0,9.2239E-1,2.1330159E0,0E0,0E0,0E0,0E0,2.5293355E0,3.9586427E0,0E0,1.0160303E-1,3.7470055E-1,2.9524457E0,1.1523193E0,0E0,2.4574375E0,2.6898437E0,4.1775594E0,0E0,0E0,0E0,7.9452896E-1,2.5011063E-2,0E0,9.9731684E-2,0E0,0E0,4.3385017E-1,1.458292E-1,0E0,0E0,5.0563354E0,3.134036E-1,0E0,0E0,0E0,0E0,0E0,0E0,0E0,0E0,0E0,0E0,1.1491351E0,2.290481E0,0E0,0E0,1.3714762E0,0E0,4.6140065E0,2.924161E0,3.8632202E-1,0E0,1.0026958E0,0E0,9.997163E-1,1.705148E0,0E0,3.4680557E-1,0E0,0E0,3.6602467E-1,0E0,4.9447525E-1,1.135941E0,0E0,0E0,0E0,0E0,0E0,0E0,0E0,0E0],"parents":[2147483647,0,0,1,1,2,2,3,3,4,4,5,5,7,7,8,8,9,9,10,10,13,13,14,14,15,15,16,16,17,17,21,21,23,23,24,24,25,25,26,26,27,27,28,28,29,29,32,32,33,33,35,35,36,36,37,37,40,40,41,41,42,42,53,53,55,55,57,57,59,59,60,60,61,61,62,62,63,63,65,65,69,69,70,70,71,71,72,72,73,73,74,74,77,77,79,79,81,81,82,82,83,83,84,84,85,85,89,89,91,91,92,92,93,93,97,97,99,99,103,103,105,105,107,107,110,110,115,115,119,119,120,120,122,122,124,124,127,127,128,128,131,131,132,132,137,137,138,138,140,140,141,141,142,142,143,143,145,145,146,146,147,147,151,151,152,152,154,154,157,157,158,158,161,161,162,162,173,173,174,174,177,177,179,179,180,180,181,181,183,183,185,185,186,186,188,188,191,191,193,193,194,194],"right_children":[2,4,6,8,10,12,-1,14,16,18,20,-1,-1,22,24,26,28,30,-1,-1,-1,32,-1,34,36,38,40,42,44,46,-1,-1,48,50,-1,52,54,56,-1,-1,58,60,62,-1,-1,-1,-1,-1,-1,-1,-1,-1,-1,64,-1,66,-1,68,-1,70,72,74,76,78,-1,80,-1,-1,-1,82,84,86,88,90,92,-1,-1,94,-1,96,-1,98,100,102,104,106,-1,-1,-1,108,-1,110,112,114,-1,-1,-1,116,-1,118,-1,-1,-1,120,-1,122,-1,124,-1,-1,126,-1,-1,-1,-1,128,-1,-1,-1,130,132,-1,134,-1,136,-1,-1,138,140,-1,-1,142,144,-1,-1,-1,-1,146,148,-1,150,152,154,156,-1,158,160,162,-1,-1,-1,164,166,-1,168,-1,-1,170,172,-1,-1,174,176,-1,-1,-1,-1,-1,-1,-1,-1,-1,-1,178,180,-1,-1,182,-1,184,186,188,-1,190,-1,192,194,-1,196,-1,-1,198,-1,200,202,-1,-1,-1,-1,-1,-1,-1,-1],"split_conditions":[1E0,1E0,1E0,3E0,5E0,6E0,-6.9392696E-2,1E0,2E1,5.6E1,1.9E1,-1.0201485E0,-1.9769846E-1,1E0,2.0928874E0,1.5849625E0,1E0,3.350209E0,6.3497216E-2,-1.4125918E0,7.71096E-1,3E0,-2.3067672E-2,7.4200314E-1,5E0,1E0,2.6925824E0,1E0,1E0,4.3622613E0,9.9533665E-1,-3.2918158E-1,1E0,5E0,-3.7721872E-1,3.3128643E0,1E0,1E0,-4.7997022E-1,-1.2912313E0,1E0,2E0,1E0,-8.93235E-2,1.0996698E0,7.054209E-1,-3.2185286E-1,-1.0282266E0,-2.9141358E-1,1.0393296E0,2.8052816E-1,-3.6227807E-1,6.8358034E-1,4.5996747E0,-1.3534101E0,3E0,-1.1601065E-1,1.4E1,-5.3095293E-1,1E0,1E0,1E0,4.4E1,1.5E1,-8.780984E-1,4E0,2.2149934E-1,1.0319619E0,2.0181975E-1,5.200269E0,3.6537566E0,2E0,9E0,8.645015E0,7.7E1,1.7022873E-1,6.4259845E-1,3E0,7.482817E-1,1E1,1.310238E0,1.916E3,2E0,3E0,1E0,1.7E1,-4.2931178E-1,-7.826653E-1,1.764545E-1,5E0,1.457993E-1,2E1,2.26E2,9E0,-1.058514E0,8.775341E-1,1.47318E-1,6E0,9.028627E-1,7E0,-1.4414023E-1,9.739707E-1,-5.6867915E-1,4.2792993E0,3.273376E-1,2.5E1,4.1865595E-2,4E0,2.6021484E-2,-3.7579083E-1,7E0,-1.0064471E0,1.3045567E-1,-4.2320365E-1,2.4576844E-1,5E0,9.313465E-1,2.4073417E-1,1.189584E0,3E0,1E0,1.6183259E-1,5.2E1,-1.1267459E0,8.7544084E-1,3.682236E-1,1.3693641E0,2E0,4.5687127E0,-3.8537607E-1,6.0052806E-1,6E0,1E0,1.2304225E0,4.4769558E-1,3.335455E-1,-7.22872E-1,3E0,1.9502121E0,-2.0563826E-3,4E0,6.5955204E-1,5E0,2E0,-7.678084E-1,6E0,1E0,1.2122971E0,-9.5941406E-1,-1.2932285E0,-3.615723E-1,6.072718E-1,2E0,6.2128025E-1,6.4371967E0,7.2205377E-1,-3.0230823E-1,9.350484E-1,5.734988E-1,-6.4466447E-1,8.6278284E-1,1E0,1E0,-8.2995254E-1,5.747809E-2,-1.1452382E0,-3.4583467E-1,-9.3618006E-1,-2.3010683E-1,-3.132565E-1,3.2814735E-1,-3.1024E-1,-1.2240175E0,1E0,4.5221515E0,-1.8133834E-1,-1.0349126E0,1.33E2,6.738178E-2,1E0,1.04E2,1.7E1,-3.8949654E-2,1E0,-9.006387E-1,2E0,1.5E1,4.139256E-1,1.6E1,1.048747E0,2.1534994E-2,4.878298E0,-1.428074E0,3.3E1,2E0,4.892758E-1,1.5613128E0,-5.38669E-1,9.424728E-2,-3.669019E-2,7.204896E-1,-8.43731E-1,2.0334698E-1],"split_indices":[100,120,121,39,111,56,0,74,1,16,82,0,0,76,5,9,2,8,0,0,0,1,0,10,1,114,5,36,71,7,0,0,66,20,0,5,50,46,0,0,36,91,132,0,0,0,0,0,0,0,0,0,0,7,0,66,0,12,0,72,106,19,71,4,0,76,0,0,0,7,8,70,30,5,39,0,0,20,0,1,0,1,21,110,125,107,0,0,0,91,0,39,72,4,0,0,0,95,0,20,0,0,0,7,0,20,0,36,0,0,40,0,0,0,0,53,0,0,0,79,124,0,4,0,10,0,0,71,7,0,0,30,85,0,0,0,0,110,9,0,66,10,84,3,0,20,16,10,0,0,0,10,86,0,5,0,0,10,10,0,0,40,114,0,0,0,0,0,0,0,0,0,0,82,7,0,0,12,0,122,12,0,0,82,0,62,71,0,4,0,0,7,0,20,3,0,0,0,0,0,0,0,0],"split_type":[0,0,0,0,0,0,0,0,0,0,0,0,0,0,0,0,0,0,0,0,0,0,0,0,0,0,0,0,0,0,0,0,0,0,0,0,0,0,0,0,0,0,0,0,0,0,0,0,0,0,0,0,0,0,0,0,0,0,0,0,0,0,0,0,0,0,0,0,0,0,0,0,0,0,0,0,0,0,0,0,0,0,0,0,0,0,0,0,0,0,0,0,0,0,0,0,0,0,0,0,0,0,0,0,0,0,0,0,0,0,0,0,0,0,0,0,0,0,0,0,0,0,0,0,0,0,0,0,0,0,0,0,0,0,0,0,0,0,0,0,0,0,0,0,0,0,0,0,0,0,0,0,0,0,0,0,0,0,0,0,0,0,0,0,0,0,0,0,0,0,0,0,0,0,0,0,0,0,0,0,0,0,0,0,0,0,0,0,0,0,0,0,0,0,0,0,0,0,0,0,0,0,0],"sum_hessian":[6.290028E2,3.2271014E2,3.0629266E2,2.8650812E2,3.6202003E1,3.0518604E2,1.1066536E0,8.227132E1,2.0423682E2,3.1610966E1,4.591037E0,3.037899E2,1.3961416E0,5.2849358E1,2.9421965E1,2.7329912E1,1.769069E2,3.0564445E1,1.0465199E0,1.7593167E0,2.83172E0,5.1732452E1,1.1169037E0,6.9329367E0,2.2489027E1,2.0372765E1,6.9571476E0,1.6729266E2,9.614229E0,3.2045512E0,2.7359894E1,1.5716301E0,5.0160824E1,5.1324797E0,1.8004566E0,3.5827289E0,1.8906298E1,1.914555E1,1.227214E0,1.4142451E0,5.5429025E0,1.2166668E2,4.562599E1,1.7001169E0,7.9141126E0,2.1683753E0,1.0361758E0,4.9147053E1,1.0137695E0,3.4047976E0,1.7276822E0,1.0776438E0,2.505085E0,1.5161738E1,3.74456E0,1.7867714E1,1.2778357E0,4.1507483E0,1.3921541E0,1.0492528E2,1.67414E1,4.337148E1,2.2545125E0,7.287741E0,7.873997E0,1.670104E1,1.1666739E0,3.0685637E0,1.0821847E0,6.329565E1,4.162963E1,1.3802496E1,2.938903E0,3.2745968E1,1.0625512E1,1.0160381E0,1.2384745E0,5.7112913E0,1.5764498E0,6.4173985E0,1.0283642E1,5.572977E1,7.5658774E0,3.724302E0,3.790533E1,1.2063037E1,1.7394586E0,1.9355217E0,1.0033814E0,3.1441765E1,1.3042026E0,4.198531E0,6.4269805E0,3.2173483E0,2.493943E0,5.1850653E0,1.2323332E0,5.1922134E1,3.807637E0,6.0386586E0,1.5272189E0,1.6030815E0,2.1212206E0,3.6390213E1,1.5151184E0,1.105947E1,1.0035671E0,3.029037E1,1.1513925E0,1.5453473E0,2.6531842E0,5.420561E0,1.0064197E0,1.8099331E0,1.4074153E0,4.9483257E1,2.4388773E0,1.2191461E0,4.8195124E0,2.335978E0,3.4054234E1,1.4191674E0,9.640303E0,2.7410036E1,2.880335E0,1.1516567E0,1.5015273E0,4.3635418E1,5.8478374E0,1.099728E0,1.23625E0,2.8458136E1,5.596097E0,8.074771E0,1.5655318E0,1.0828631E0,1.797472E0,1.3412928E1,3.0222492E1,1.0387939E0,4.809044E0,2.3489717E1,4.968418E0,2.6996064E0,2.8964903E0,1.0656209E1,2.7567184E0,2.7655756E1,2.566737E0,3.6674354E0,1.1416082E0,2.8882492E0,2.0601469E1,1.1553329E0,3.813085E0,1.5035512E0,1.1960552E0,2.218834E0,8.437375E0,1.4808885E0,1.2758299E0,2.4869484E1,2.7862709E0,1.3127979E0,1.5754511E0,1.9488512E1,1.1129568E0,2.7386088E0,1.0744761E0,1.1194651E0,1.0993689E0,1.0176774E0,7.4196973E0,9.204949E0,1.5664535E1,1.1156182E0,1.6706526E0,7.4504304E0,1.7545195E0,5.9298787E0,9.734656E0,6.4063644E0,1.0440658E0,4.7214274E0,1.2084509E0,3.8326135E0,5.9020424E0,1.855769E0,4.5505953E0,3.4597166E0,1.2617111E0,2.5120964E0,1.320517E0,3.2792225E0,2.6228201E0,1.7026945E0,2.8479009E0,1.4703821E0,1.0417143E0,1.049751E0,2.2294714E0,1.3131319E0,1.3096881E0],"tree_param":{"num_deleted":"0","num_feature":"136","num_nodes":"203","size_leaf_vector":"1"}},{"base_weights":[-4.3976203E-1,-1.2637603E-1,-9.693823E-1,-1.9836245E-1,9.6475464E-1,-9.855192E-1,-3.1717423E-1,-2.4681097E-1,8.799284E-1,-9.9408865E-1,-5.412822E-2,4.8979247E-1,-7.1193165E-1,-2.94055E-1,5.378377E-1,9.4111836E-1,2.3698106E-1,-3.1032464E-1,-1.0028527E0,-3.4803703E-1,4.5423278E-1,3.2658152E-2,8.380194E-1,-2.2839859E-1,-6.8569195E-1,7.4835706E-1,-5.959849E-1,6.102491E-1,-6.9201374E-1,9.574852E-1,1.7727315E-1,-1.4760709E-1,-7.951408E-1,-8.788588E-1,-3.0090854E-1,9.192529E-1,-2.0635384E-1,-2.0180449E-1,6.7776E-1,-9.4790787E-1,1.6859001E-1,-9.486457E-1,-1.494069E-1,-6.669745E-1,1.7802231E-1,-3.9315695E-1,1.6903892E-2,8.7823826E-1,4.9173847E-2,-1.0547689E0,2.8851321E-2,-9.9914604E-1,-1.3444889E-1,4.197422E-1,-5.5615467E-1,-9.241146E-2,-1.1633857E0,8.499753E-1,-5.1583666E-1,2.6308087E-1,-5.3244746E-1,7.506065E-1,-8.889573E-2,-6.958558E-1,6.620862E-1,2.5043595E-1,1.0147028E0,-7.1811414E-1,-2.0542279E-2,6.9554245E-1,-6.323942E-1,2.6652804E-1,-6.15716E-1,2.4633431E-1,9.574587E-1,5.88523E-2,-4.705216E-1,-2.3830366E-1,9.729128E-1,4.0977237E-1,-3.75412E-2,-4.5004565E-1,-1.0514017E0,3.9533928E-1,-2.644658E-2,-1.814094E-1,3.3907667E-1,-6.939991E-1,1.6329934E-1,-5.774214E-1,1.329749E-1,-1.3441998E-1,-1.1976861E0,4.9804834E-1,-3.050572E-1,4.9094325E-1,-2.8454894E-1,-1.0135618E-1,-9.1719437E-1,4.96684E-1,-3.937109E-1,-6.421936E-1,3.4220842E-1,4.927819E-1,-5.018052E-1,-1.2666706E0,-3.461169E-1,6.4871275E-1,9.530147E-2,-5.9551156E-1,9.961904E-2,6.808865E-1,-3.4386612E-2,-6.908252E-1,3.69691E-1,-4.0006953E-1,2.2615568E-1,-7.481444E-1,-6.1665433E-3,-6.9385104E-2,6.966906E-1,-8.2395816E-1,-8.0840394E-2,4.1972843E-1,-6.3947845E-1,8.719414E-1,-5.0935738E-2,-4.2153722E-1,2.5246572E-1,-8.651971E-1,-8.219362E-2,-8.5088766E-1,5.248885E-1,4.6432585E-1,-5.1432264E-1,7.256549E-1,-2.2287871E-1,1.0039864E0,1.0431736E-1,5.265939E-1,-1.5292646E-1,-9.528733E-1,-2.9665616E-1,6.408962E-1,-6.7800254E-1,9.209917E-1,-9.809421E-2,3.734209E-1,1.1518235E0,-2.3230824E-1,-9.9274075E-1,-6.7759687E-1,2.0617527E-1,-1.0606356E0,-3.7883177E-1],"categories":[],"categories_nodes":[],"categories_segments":[],"categories_sizes":[],"default_left":[0,0,0,0,0,0,0,0,0,0,0,0,0,0,0,0,0,0,0,0,0,0,0,0,0,0,0,0,0,0,0,0,0,0,0,0,0,0,0,0,0,0,0,0,0,0,0,0,0,0,0,0,0,0,0,0,0,0,0,0,0,0,0,0,0,0,0,0,0,0,0,0,0,0,0,0,0,0,0,0,0,0,0,0,0,0,0,0,0,0,0,0,0,0,0,0,0,0,0,0,0,0,0,0,0,0,0,0,0,0,0,0,0,0,0,0,0,0,0,0,0,0,0,0,0,0,0,0,0,0,0,0,0,0,0,0,0,0,0,0,0,0,0,0,0,0,0,0,0,0,0,0,0,0,0],"id":3,"left_children":[1,3,5,7,-1,9,11,13,15,17,-1,-1,-1,19,21,-1,-1,-1,-1,23,25,27,29,31,33,35,-1,-1,-1,-1,-1,37,39,41,43,-1,-1,45,47,49,-1,51,53,55,57,59,61,-1,-1,-1,-1,-1,-1,-1,-1,63,-1,65,67,69,71,73,75,-1,-1,-1,-1,-1,-1,77,-1,79,81,83,-1,85,87,-1,-1,-1,-1,89,91,-1,-1,93,95,97,99,101,103,-1,105,107,109,111,113,115,-1,-1,-1,117,-1,119,-1,-1,-1,-1,-1,121,123,125,127,-1,-1,-1,-1,129,131,-1,-1,-1,133,135,-1,137,-1,-1,139,141,143,-1,145,-1,-1,-1,-1,147,-1,-1,-1,149,151,-1,-1,-1,-1,-1,-1,-1,153,-1,-1,-1,-1],"loss_changes":[5.2142895E1,1.5820988E1,9.178848E-1,1.0012442E1,0E0,8.5302734E-1,1.7176523E0,6.838834E0,1.02775574E-1,3.6307526E-1,0E0,0E0,0E0,7.05052E0,1.5782936E0,0E0,0E0,0E0,0E0,6.295311E0,4.12646E0,2.5097213E0,3.51336E-1,5.3510537E0,2.8041992E0,1.780694E0,0E0,0E0,0E0,0E0,0E0,4.867543E0,2.3200607E0,1.2310104E0,2.804544E0,0E0,0E0,4.1921153E0,8.069272E-1,1.3681688E0,0E0,8.699417E-1,1.0533073E0,2.4290879E0,3.9007244E0,5.0196304E0,3.7638698E0,0E0,0E0,0E0,0E0,0E0,0E0,0E0,0E0,2.8321524E0,0E0,1.5575814E-1,4.1362166E-1,4.3186793E0,3.1157665E0,4.0129924E-1,2.4251423E0,0E0,0E0,0E0,0E0,0E0,0E0,2.1046863E0,0E0,2.2816834E-1,2.448742E0,1.373993E-1,0E0,2.1850984E0,1.8100071E0,0E0,0E0,0E0,0E0,2.384646E0,1.2345848E0,0E0,0E0,1.6333401E0,1.5516334E0,1.1036496E0,9.257183E-1,1.750145E0,1.705604E0,0E0,8.124828E-2,1.2595922E-1,1.8856977E0,1.2563021E0,1.1996826E0,4.4258863E-1,0E0,0E0,0E0,1.6362162E0,0E0,5.733104E-1,0E0,0E0,0E0,0E0,0E0,1.0137951E0,2.0071795E0,1.319931E0,5.76523E-1,0E0,0E0,0E0,0E0,1.5552559E0,2.4586751E0,0E0,0E0,0E0,1.168415E0,1.2885737E0,0E0,6.341157E-1,0E0,0E0,4.2024112E-1,5.9663105E-1,2.2543087E0,0E0,9.2253685E-1,0E0,0E0,0E0,0E0,1.388588E-1,0E0,0E0,0E0,1.9543076E-1,8.692975E-1,0E0,0E0,0E0,0E0,0E0,0E0,0E0,1.7123032E-1,0E0,0E0,0E0,0E0],"parents":[2147483647,0,0,1,1,2,2,3,3,5,5,6,6,7,7,8,8,9,9,13,13,14,14,19,19,20,20,21,21,22,22,23,23,24,24,25,25,31,31,32,32,33,33,34,34,37,37,38,38,39,39,41,41,42,42,43,43,44,44,45,45,46,46,55,55,57,57,58,58,59,59,60,60,61,61,62,62,69,69,71,71,72,72,73,73,75,75,76,76,81,81,82,82,85,85,86,86,87,87,88,88,89,89,90,90,92,92,93,93,94,94,95,95,96,96,97,97,101,101,103,103,109,109,110,110,111,111,112,112,117,117,118,118,122,122,123,123,125,125,128,128,129,129,130,130,132,132,137,137,141,141,142,142,150,150],"right_children":[2,4,6,8,-1,10,12,14,16,18,-1,-1,-1,20,22,-1,-1,-1,-1,24,26,28,30,32,34,36,-1,-1,-1,-1,-1,38,40,42,44,-1,-1,46,48,50,-1,52,54,56,58,60,62,-1,-1,-1,-1,-1,-1,-1,-1,64,-1,66,68,70,72,74,76,-1,-1,-1,-1,-1,-1,78,-1,80,82,84,-1,86,88,-1,-1,-1,-1,90,92,-1,-1,94,96,98,100,102,104,-1,106,108,110,112,114,116,-1,-1,-1,118,-1,120,-1,-1,-1,-1,-1,122,124,126,128,-1,-1,-1,-1,130,132,-1,-1,-1,134,136,-1,138,-1,-1,140,142,144,-1,146,-1,-1,-1,-1,148,-1,-1,-1,150,152,-1,-1,-1,-1,-1,-1,-1,154,-1,-1,-1,-1],"split_conditions":[1E0,1E0,3E0,1E0,9.6475464E-1,8E0,1E0,5.0831776E0,1E1,3.8948822E0,-5.412822E-2,4.8979247E-1,-7.1193165E-1,1E0,3.1E1,9.4111836E-1,2.3698106E-1,-3.1032464E-1,-1.0028527E0,9.5E1,3E0,2E0,8E0,1E0,2E0,9E0,-5.959849E-1,6.102491E-1,-6.9201374E-1,9.574852E-1,1.7727315E-1,3.13E2,7E0,1.276E3,5.187797E0,9.192529E-1,-2.0635384E-1,1.3E1,3.4E1,5.120204E0,1.6859001E-1,1E0,1.49E2,2.2E1,4E0,3.2806392E0,2.3E1,8.7823826E-1,4.9173847E-2,-1.0547689E0,2.8851321E-2,-9.9914604E-1,-1.3444889E-1,4.197422E-1,-5.5615467E-1,1E0,-1.1633857E0,2E0,3.9E1,1E0,3.7690508E0,5E0,2E0,-6.958558E-1,6.620862E-1,2.5043595E-1,1.0147028E0,-7.1811414E-1,-2.0542279E-2,3E0,-6.323942E-1,3.695253E0,2E0,3.4505732E0,9.574587E-1,8E0,2E0,-2.3830366E-1,9.729128E-1,4.0977237E-1,-3.75412E-2,1E0,1E0,3.9533928E-1,-2.644658E-2,4.2E1,5.1103153E0,2E0,1E1,1E0,7.356099E-1,-1.3441998E-1,1.0213453E0,1E0,3.3E1,3E0,1.0262169E0,1E0,-9.1719437E-1,4.96684E-1,-3.937109E-1,1E0,3.4220842E-1,4.4740806E0,-5.018052E-1,-1.2666706E0,-3.461169E-1,6.4871275E-1,9.530147E-2,2E0,1.19E2,1E0,1.2E1,-6.908252E-1,3.69691E-1,-4.0006953E-1,2.2615568E-1,1E0,6.38418E-1,-6.9385104E-2,6.966906E-1,-8.2395816E-1,5.3E1,1E0,-6.3947845E-1,2E0,-5.0935738E-2,-4.2153722E-1,1.17E2,1.7E1,1E0,-8.5088766E-1,3.7544417E0,4.6432585E-1,-5.1432264E-1,7.256549E-1,-2.2287871E-1,6E1,1.0431736E-1,5.265939E-1,-1.5292646E-1,3E0,7.219281E-1,6.408962E-1,-6.7800254E-1,9.209917E-1,-9.809421E-2,3.734209E-1,1.1518235E0,-2.3230824E-1,1.2253852E0,-6.7759687E-1,2.0617527E-1,-1.0606356E0,-3.7883177E-1],"split_indices":[100,118,23,51,0,44,53,8,105,7,0,0,0,131,4,0,0,0,0,0,52,82,21,106,23,46,0,0,0,0,0,1,18,12,7,0,0,39,0,7,0,129,74,110,22,8,1,0,0,0,0,0,0,0,0,22,0,43,4,62,7,74,22,0,0,0,0,0,0,12,0,7,76,8,0,79,66,0,0,0,0,53,74,0,0,12,7,3,3,16,10,0,10,40,39,110,10,46,0,0,0,76,0,7,0,0,0,0,0,110,1,80,76,0,0,0,0,52,10,0,0,0,1,50,0,82,0,0,1,4,36,0,8,0,0,0,0,1,0,0,0,1,9,0,0,0,0,0,0,0,10,0,0,0,0],"split_type":[0,0,0,0,0,0,0,0,0,0,0,0,0,0,0,0,0,0,0,0,0,0,0,0,0,0,0,0,0,0,0,0,0,0,0,0,0,0,0,0,0,0,0,0,0,0,0,0,0,0,0,0,0,0,0,0,0,0,0,0,0,0,0,0,0,0,0,0,0,0,0,0,0,0,0,0,0,0,0,0,0,0,0,0,0,0,0,0,0,0,0,0,0,0,0,0,0,0,0,0,0,0,0,0,0,0,0,0,0,0,0,0,0,0,0,0,0,0,0,0,0,0,0,0,0,0,0,0,0,0,0,0,0,0,0,0,0,0,0,0,0,0,0,0,0,0,0,0,0,0,0,0,0,0,0],"sum_hessian":[3.138982E2,1.9798529E2,1.159129E2,1.8649936E2,1.1485933E1,1.1261553E2,3.2973704E0,1.7921805E2,7.2813096E0,1.11522125E2,1.0934008E0,1.0040795E0,2.2932909E0,1.6962979E2,9.588247E0,6.2251034E0,1.056206E0,1.8720812E0,1.0965005E2,1.5871489E2,1.0914912E1,3.9871013E0,5.6011467E0,1.1842927E2,4.0285618E1,8.751415E0,2.1634972E0,2.306572E0,1.6805292E0,4.3631697E0,1.2379769E0,1.0475626E2,1.3673001E1,2.5966183E1,1.4319435E1,7.4542284E0,1.297187E0,9.901029E1,5.7459745E0,1.1816338E1,1.856664E0,2.3424648E1,2.5415344E0,7.8934927E0,6.425943E0,5.2382305E1,4.6627987E1,4.0554E0,1.6905744E0,1.0579082E1,1.2372564E0,2.1842705E1,1.5819435E0,1.0459805E0,1.4955541E0,4.208543E0,3.6849496E0,3.1502008E0,3.2757423E0,9.016106E0,4.33662E1,5.1082845E0,4.15197E1,2.3815286E0,1.8270144E0,1.2222016E0,1.9279991E0,2.0064409E0,1.2693013E0,6.2304406E0,2.7856648E0,3.8852985E0,3.9480904E1,2.1231818E0,2.985103E0,3.0541298E1,1.0978403E1,1.4590342E0,4.771406E0,2.4047933E0,1.4805051E0,3.0077017E1,9.403885E0,1.0825517E0,1.04063E0,1.6632973E1,1.3908324E1,8.046397E0,2.932006E0,2.4692017E1,5.3850007E0,1.5577902E0,7.846095E0,2.0946562E0,1.4538318E1,1.1355717E1,2.5526075E0,2.5991297E0,5.447268E0,1.9019467E0,1.0300593E0,2.3349152E1,1.3428649E0,3.579666E0,1.8053349E0,6.8071976E0,1.0388975E0,1.0799388E0,1.0147175E0,8.1890745E0,6.3492427E0,8.122688E0,3.2330287E0,1.540224E0,1.0123835E0,1.2434634E0,1.3556663E0,1.9863901E1,3.4852507E0,1.1284115E0,2.4512544E0,5.2554164E0,2.9336584E0,4.7319164E0,1.6173263E0,6.289293E0,1.8333949E0,1.1761328E0,2.0568957E0,1.6639944E1,3.2239573E0,1.1128464E0,2.3724043E0,1.2679172E0,1.6657411E0,3.1181977E0,1.6137187E0,5.103488E0,1.1858052E0,1.0487512E0,1.0081446E0,1.3831028E1,2.8089159E0,1.4222283E0,1.8017288E0,1.1578592E0,1.2145452E0,1.6389239E0,3.4645638E0,1.0830462E0,1.2747982E1,1.4004128E0,1.4085032E0,1.082331E1,1.9246714E0],"tree_param":{"num_deleted":"0","num_feature":"136","num_nodes":"155","size_leaf_vector":"1"}},{"base_weights":[-2.791873E-1,-5.9871834E-2,-8.993951E-1,-1.513631E-1,3.6423606E-1,-1.8867019E-1,-9.592888E-1,-8.161249E-2,-5.7462484E-1,1.2513933E-1,7.0438075E-1,-7.468494E-1,9.904425E-1,-9.816807E-1,-1.1364113E-2,4.7814675E-2,-3.8166663E-1,-8.690604E-1,6.3472904E-2,-9.734874E-2,4.7858474E-1,8.4979993E-1,-1.7666443E-1,9.536692E-2,-7.944413E-1,-1.5425813E-1,-9.0447956E-1,-9.3217194E-1,-2.6692265E-1,3.352904E-1,-4.8482433E-1,1.2860629E-1,-5.971768E-1,7.1950924E-1,-3.3878022E-1,9.0995777E-1,2.0618671E-1,1.9611906E-1,-2.8048825E-1,-4.4844842E-1,4.2242044E-1,-1.6405399E-1,7.7339226E-1,5.857451E-1,-1.9981954E-1,-8.7913966E-1,2.9954638E-2,8.020161E-1,2.1171233E-1,6.853786E-2,6.669878E-1,1.4282994E-1,-4.6561214E-1,1.8190585E-1,-5.8870906E-1,8.771467E-1,7.428004E-2,7.436436E-1,1.0093496E-1,-4.7178265E-1,3.3771825E-1,-2.3863095E-1,2.603724E-1,7.602098E-1,-1.2623064E-1,-7.0878595E-1,5.4921085E-1,-6.2591445E-1,3.506304E-1,-1.941291E-1,5.024293E-1,-6.967662E-1,5.7666533E-2,-4.771437E-1,4.5254758E-1,1.12723164E-1,-7.2747546E-1,-4.7658572E-1,2.8160167E-1,4.2392728E-1,-1.4403915E-1,8.444873E-1,1.9031623E-1,7.140393E-1,6.438135E-2,-7.62883E-1,5.2559216E-2,-8.3252615E-1,-4.6314485E-2,6.164539E-1,7.509257E-2,-7.1376985E-1,1.2095083E-1,5.865788E-1,-4.2400265E-1,7.5188315E-1,9.4196066E-2,-3.8465032E-1,5.146124E-1,8.95011E-1,2.707648E-1,-1.10336885E-1,-8.762993E-1,-2.4411507E-1,-9.804629E-1,-8.8528687E-1,-2.6919672E-1,3.7394395E-1,-3.252274E-1,6.681585E-1,1.708062E-1,8.920666E-1,4.645463E-2,-2.0501223E-1,5.180378E-1,-5.861864E-1,6.792708E-3,-4.157865E-1,3.8440272E-2,-2.1798599E-1,-1.0825363E0,-4.5739502E-1,1.1201469E-1,6.45221E-2,5.037481E-1,1.1807232E0,2.2676861E-1,8.857819E-2,-5.3044844E-1,7.208799E-1,-8.8152E-2,-1.1821585E-1,-7.093369E-1,-2.4968454E-1,2.5497016E-1,4.639098E-1,-1.8690911E-1,-3.5637268E-1,3.427422E-1,4.7875774E-1,2.4321394E-2],"categories":[],"categories_nodes":[],"categories_segments":[],"categories_sizes":[],"default_left":[0,0,0,0,0,0,0,0,0,0,0,0,0,0,0,0,0,0,0,0,0,0,0,0,0,0,0,0,0,0,0,0,0,0,0,0,0,0,0,0,0,0,0,0,0,0,0,0,0,0,0,0,0,0,0,0,0,0,0,0,0,0,0,0,0,0,0,0,0,0,0,0,0,0,0,0,0,0,0,0,0,0,0,0,0,0,0,0,0,0,0,0,0,0,0,0,0,0,0,0,0,0,0,0,0,0,0,0,0,0,0,0,0,0,0,0,0,0,0,0,0,0,0,0,0,0,0,0,0,0,0,0,0,0,0,0,0,0,0,0,0],"id":4,"left_children":[1,3,5,7,9,11,13,15,17,19,21,-1,-1,-1,-1,23,25,27,29,31,33,35,-1,37,-1,39,-1,-1,-1,41,-1,43,45,47,-1,-1,-1,49,51,53,55,-1,-1,57,59,-1,-1,-1,-1,61,63,65,67,69,71,-1,73,-1,-1,75,-1,77,79,81,-1,-1,83,85,-1,-1,-1,87,-1,-1,89,-1,-1,91,93,95,97,99,-1,-1,-1,101,-1,103,-1,-1,-1,105,107,109,-1,111,113,115,-1,-1,-1,-1,-1,117,119,-1,121,123,-1,-1,-1,125,-1,127,129,131,133,-1,-1,-1,-1,-1,-1,-1,-1,-1,135,137,-1,-1,-1,-1,-1,-1,-1,-1,-1,-1,139,-1,-1],"loss_changes":[2.4460253E1,5.262887E0,1.8201218E0,3.2331948E0,1.8725941E0,3.9636881E0,9.039116E-1,3.767804E0,2.9772854E0,1.2555249E0,1.3974686E0,0E0,0E0,0E0,0E0,2.812981E0,3.3330183E0,1.5820408E-1,1.0333306E0,1.2361821E0,1.4465553E0,1.4258909E-1,0E0,2.5385404E0,0E0,3.8471043E0,0E0,0E0,0E0,1.1107364E0,0E0,1.301985E0,6.2279904E-1,4.126072E-2,0E0,0E0,0E0,3.0966394E0,1.1852204E0,1.4122214E0,1.1693474E0,0E0,0E0,1.9700241E-1,9.3975836E-1,0E0,0E0,0E0,0E0,2.5529897E0,9.1208506E-1,2.1572924E0,1.5497441E0,5.1344556E-1,9.0004015E-1,0E0,1.3650659E0,0E0,0E0,6.7415607E-1,0E0,2.2104857E0,1.8137907E0,3.2046318E-1,0E0,0E0,2.7542734E-1,8.63168E-1,0E0,0E0,0E0,8.99601E-1,0E0,0E0,1.8762052E-1,0E0,0E0,1.7700107E0,1.5167438E0,1.9969463E0,1.5255502E0,2.2201538E-3,0E0,0E0,0E0,4.53475E-1,0E0,5.206332E-1,0E0,0E0,0E0,4.2119265E-1,5.9918094E-1,3.965509E-2,0E0,8.92416E-1,1.4603906E0,5.3317434E-1,0E0,0E0,0E0,0E0,0E0,1.6565298E-1,2.811985E-1,0E0,3.2707486E-1,9.461725E-2,0E0,0E0,0E0,1.2345982E0,0E0,7.134998E-1,6.4175296E-1,1.7200291E-1,2.7170143E-1,0E0,0E0,0E0,0E0,0E0,0E0,0E0,0E0,0E0,4.4034687E-1,6.337997E-1,0E0,0E0,0E0,0E0,0E0,0E0,0E0,0E0,0E0,0E0,1.3514441E-1,0E0,0E0],"parents":[2147483647,0,0,1,1,2,2,3,3,4,4,5,5,6,6,7,7,8,8,9,9,10,10,15,15,16,16,17,17,18,18,19,19,20,20,21,21,23,23,25,25,29,29,31,31,32,32,33,33,37,37,38,38,39,39,40,40,43,43,44,44,49,49,50,50,51,51,52,52,53,53,54,54,56,56,59,59,61,61,62,62,63,63,66,66,67,67,71,71,74,74,77,77,78,78,79,79,80,80,81,81,85,85,87,87,91,91,92,92,93,93,95,95,96,96,97,97,103,103,104,104,106,106,107,107,111,111,113,113,114,114,115,115,116,116,126,126,127,127,138,138],"right_children":[2,4,6,8,10,12,14,16,18,20,22,-1,-1,-1,-1,24,26,28,30,32,34,36,-1,38,-1,40,-1,-1,-1,42,-1,44,46,48,-1,-1,-1,50,52,54,56,-1,-1,58,60,-1,-1,-1,-1,62,64,66,68,70,72,-1,74,-1,-1,76,-1,78,80,82,-1,-1,84,86,-1,-1,-1,88,-1,-1,90,-1,-1,92,94,96,98,100,-1,-1,-1,102,-1,104,-1,-1,-1,106,108,110,-1,112,114,116,-1,-1,-1,-1,-1,118,120,-1,122,124,-1,-1,-1,126,-1,128,130,132,134,-1,-1,-1,-1,-1,-1,-1,-1,-1,136,138,-1,-1,-1,-1,-1,-1,-1,-1,-1,-1,140,-1,-1],"split_conditions":[1E0,1E0,4.11822E0,2.5E1,4.5E1,2.3E1,1E0,1E0,5.0940766E0,1E0,9E0,-7.468494E-1,9.904425E-1,-9.816807E-1,-1.1364113E-2,1E0,1E0,1E0,1E0,8E0,1E0,6E0,-1.7666443E-1,3E0,-7.944413E-1,2E0,-9.0447956E-1,-9.3217194E-1,-2.6692265E-1,8.25E2,-4.8482433E-1,1E0,4E1,4E0,-3.3878022E-1,9.0995777E-1,2.0618671E-1,5.7081814E0,7.582114E-1,1.9E1,4.540224E0,-1.6405399E-1,7.7339226E-1,4.001823E0,8.1E1,-8.7913966E-1,2.9954638E-2,8.020161E-1,2.1171233E-1,6.802083E-1,8E0,2.2E1,1E0,2E0,4.6053596E0,8.771467E-1,9.3222916E-1,7.436436E-1,1.0093496E-1,6.4E1,3.3771825E-1,3.4015315E0,2E0,1E0,-1.2623064E-1,-7.0878595E-1,2E0,1.7E1,3.506304E-1,-1.941291E-1,5.024293E-1,1E0,5.7666533E-2,-4.771437E-1,1E0,1.12723164E-1,-7.2747546E-1,1E0,1.8E1,2.7E1,1E0,1E0,1.9031623E-1,7.140393E-1,6.438135E-2,3.6163485E0,5.2559216E-2,1E0,-4.6314485E-2,6.164539E-1,7.509257E-2,2.25E0,1E0,1E0,-4.2400265E-1,1.5219281E0,3.5E1,1E0,5.146124E-1,8.95011E-1,2.707648E-1,-1.10336885E-1,-8.762993E-1,7.6E1,6.720362E-1,-8.8528687E-1,1.8856181E0,4.1378498E-1,-3.252274E-1,6.681585E-1,1.708062E-1,3.170855E0,4.645463E-2,3.9E1,1E0,3E0,7E0,-4.157865E-1,3.8440272E-2,-2.1798599E-1,-1.0825363E0,-4.5739502E-1,1.1201469E-1,6.45221E-2,5.037481E-1,1.1807232E0,4.3782744E0,3.823068E0,-5.3044844E-1,7.208799E-1,-8.8152E-2,-1.1821585E-1,-7.093369E-1,-2.4968454E-1,2.5497016E-1,4.639098E-1,-1.8690911E-1,-3.5637268E-1,5.8E1,4.7875774E-1,2.4321394E-2],"split_indices":[100,133,7,84,4,12,52,50,7,91,44,0,0,0,0,35,124,52,70,84,124,111,0,66,0,50,0,0,0,1,0,40,84,72,0,0,0,5,10,1,7,0,0,8,39,0,0,0,0,10,3,12,129,39,8,0,10,0,0,1,0,5,21,80,0,0,76,79,0,0,0,22,0,0,16,0,0,52,4,1,91,18,0,0,0,8,0,40,0,0,0,9,40,79,0,9,39,52,0,0,0,0,0,12,10,0,5,10,0,0,0,5,0,12,85,21,79,0,0,0,0,0,0,0,0,0,7,8,0,0,0,0,0,0,0,0,0,0,1,0,0],"split_type":[0,0,0,0,0,0,0,0,0,0,0,0,0,0,0,0,0,0,0,0,0,0,0,0,0,0,0,0,0,0,0,0,0,0,0,0,0,0,0,0,0,0,0,0,0,0,0,0,0,0,0,0,0,0,0,0,0,0,0,0,0,0,0,0,0,0,0,0,0,0,0,0,0,0,0,0,0,0,0,0,0,0,0,0,0,0,0,0,0,0,0,0,0,0,0,0,0,0,0,0,0,0,0,0,0,0,0,0,0,0,0,0,0,0,0,0,0,0,0,0,0,0,0,0,0,0,0,0,0,0,0,0,0,0,0,0,0,0,0,0,0],"sum_hessian":[1.7922269E2,1.3321297E2,4.6009716E1,1.1010378E2,2.310919E1,3.8984976E0,4.2111217E1,9.555053E1,1.455325E1,1.4373545E1,8.735646E0,2.8947532E0,1.0037445E0,4.1104633E1,1.0065845E0,6.734303E1,2.8207502E1,9.710574E0,4.8426766E0,9.265584E0,5.1079607E0,7.5285068E0,1.2071393E0,6.4583534E1,2.7594967E0,2.0559687E1,7.6478148E0,8.293236E0,1.417338E0,3.497356E0,1.3453207E0,6.892446E0,2.3731382E0,4.0375752E0,1.0703851E0,6.506522E0,1.0219848E0,5.130805E1,1.3275485E1,1.3761614E1,6.798073E0,1.926773E0,1.570583E0,2.5540078E0,4.3384385E0,1.3598824E0,1.0132558E0,2.9748232E0,1.0627521E0,4.127123E1,1.0036822E1,4.1086955E0,9.166789E0,2.450728E0,1.1310886E1,2.288895E0,4.509178E0,1.5238247E0,1.030183E0,2.9621086E0,1.3763297E0,1.577234E1,2.5498888E1,9.018542E0,1.0182798E0,1.0868789E0,3.0218165E0,7.856937E0,1.3098525E0,1.3091654E0,1.1415625E0,9.624039E0,1.6868474E0,1.7283151E0,2.7808628E0,1.0716032E0,1.8905056E0,1.0879807E1,4.8925323E0,1.8121721E1,7.377167E0,7.4369164E0,1.5816258E0,1.9023176E0,1.1194988E0,6.433706E0,1.4232308E0,7.7306128E0,1.8934258E0,1.4974321E0,1.2834308E0,7.6490846E0,3.2307224E0,3.5338244E0,1.3587079E0,8.443445E0,9.678276E0,5.707991E0,1.6691757E0,6.3203235E0,1.1165932E0,1.2447613E0,5.188945E0,2.0855546E0,5.6450586E0,4.8042703E0,2.8448143E0,2.165009E0,1.0657135E0,2.4467196E0,1.0871049E0,6.822998E0,1.6204468E0,5.9759164E0,3.702359E0,3.4395986E0,2.2683928E0,1.0040214E0,1.0815331E0,1.036689E0,4.6083694E0,1.7707672E0,1.0740471E0,1.0822523E0,1.0827568E0,4.2181273E0,2.6048713E0,3.5243034E0,2.4516132E0,2.632334E0,1.0700251E0,1.1249043E0,2.3146942E0,1.1125565E0,1.1558362E0,1.5785422E0,1.0263289E0,1.1350673E0,2.389236E0,1.3212974E0,1.0679386E0],"tree_param":{"num_deleted":"0","num_feature":"136","num_nodes":"141","size_leaf_vector":"1"}},{"base_weights":[-1.6678613E-1,-4.3849476E-2,-8.929526E-1,-1.4390366E-1,3.573427E-1,-3.200651E-2,-9.453607E-1,-5.3999737E-2,-5.664673E-1,5.0556415E-1,-2.1916667E-1,-2.25289E-1,9.878066E-2,2.3120681E-3,-7.85629E-1,6.8302995E-1,1.4847192E-1,4.4266385E-1,-5.211336E-1,-4.7655803E-1,2.1242907E-2,6.931274E-1,-8.2949966E-2,3.8911745E-1,-2.3139204E-1,-8.552425E-1,-1.0904478E-1,-6.0830507E-2,8.053516E-1,-3.757229E-1,5.5963326E-1,-7.497668E-1,4.6367753E-2,-6.158514E-1,-4.8372038E-2,2.5971094E-1,-2.0369448E-1,4.29808E-1,9.7676855E-1,2.7701095E-2,-7.5401455E-1,-5.342069E-1,9.453577E-2,-9.0212226E-1,-2.4117842E-1,9.2312545E-1,1.8166175E-1,-5.509886E-1,8.2292445E-3,1.15786485E-1,7.097116E-1,-1.069977E-2,-7.1178323E-1,2.0962664E-1,-5.2208716E-1,-3.146077E-2,5.2405655E-1,-3.319165E-1,3.6653015E-1,5.8333457E-1,-8.043846E-2,-1.1012838E-1,3.9572003E-1,-7.760811E-1,-5.8263313E-2,5.0112337E-1,-1.6536261E-1,1.6156754E-1,-4.0755224E-1,7.368076E-1,1.251255E-1,-3.6568988E-2,-7.39644E-1,6.6906893E-1,1.9958729E-1,2.2566963E-2,-4.4099537E-1,8.033645E-1,5.1012214E-2,3.5927424E-1,-1.21889964E-1,-5.023468E-1,2.807525E-1,-1.3384141E-1,5.931305E-1,-7.364018E-1,3.2554838E-1,2.8441057E-1,9.9362296E-1,-1.6868272E-1,2.899368E-1,5.6044424E-1,-1.8829718E-1,8.297957E-2,-4.9729067E-1,-3.1113294E-1,7.329516E-2,-1.6420023E-1,3.7255087E-1,-3.8456745E-2,-6.592716E-1,-4.4530228E-1,1.8550019E-1,5.836593E-1,-8.417364E-3,-6.095625E-1,-4.1737236E-2,3.7166938E-1,-8.273042E-2],"categories":[],"categories_nodes":[],"categories_segments":[],"categories_sizes":[],"default_left":[0,0,0,0,0,0,0,0,0,0,0,0,0,0,0,0,0,0,0,0,0,0,0,0,0,0,0,0,0,0,0,0,0,0,0,0,0,0,0,0,0,0,0,0,0,0,0,0,0,0,0,0,0,0,0,0,0,0,0,0,0,0,0,0,0,0,0,0,0,0,0,0,0,0,0,0,0,0,0,0,0,0,0,0,0,0,0,0,0,0,0,0,0,0,0,0,0,0,0,0,0,0,0,0,0,0,0,0,0],"id":5,"left_children":[1,3,5,7,9,-1,-1,11,13,15,17,19,21,23,25,27,29,-1,31,33,35,37,39,-1,41,43,-1,-1,45,47,49,-1,-1,51,53,55,57,59,-1,61,-1,-1,-1,-1,-1,-1,-1,-1,-1,-1,-1,-1,63,65,-1,67,69,71,-1,73,-1,75,77,-1,-1,-1,-1,79,-1,-1,-1,81,-1,-1,-1,83,85,87,89,-1,-1,-1,91,93,-1,-1,-1,-1,-1,95,-1,-1,-1,97,99,-1,-1,101,103,-1,-1,105,107,-1,-1,-1,-1,-1,-1],"loss_changes":[1.0667788E1,4.2109256E0,7.5091934E-1,3.147329E0,1.9028175E0,0E0,0E0,1.8562573E0,1.8180151E0,9.749341E-1,1.2272662E0,2.075656E0,4.1335235E0,5.4651153E-1,4.0223694E-1,1.0560899E0,1.700951E0,0E0,5.3865445E-1,9.576738E-1,1.00706E0,2.4816084E-1,2.2331762E0,0E0,4.2306274E-1,5.2815914E-2,0E0,0E0,5.3565884E-1,2.4938923E-1,2.0277715E-1,0E0,0E0,7.126517E-1,7.387552E-1,7.1490526E-1,8.319119E-1,5.5013764E-1,0E0,1.3898342E0,0E0,0E0,0E0,0E0,0E0,0E0,0E0,0E0,0E0,0E0,0E0,0E0,4.0414572E-1,5.252442E-1,0E0,4.4779286E-1,3.1627274E-1,9.911864E-1,0E0,3.2910943E-2,0E0,8.9205956E-1,1.0057878E0,0E0,0E0,0E0,0E0,2.787674E-1,0E0,0E0,0E0,1.0212789E0,0E0,0E0,0E0,1.4440222E0,1.5530753E0,4.770112E-2,3.16822E-1,0E0,0E0,0E0,6.543994E-1,1.0513277E0,0E0,0E0,0E0,0E0,0E0,1.3625255E-1,0E0,0E0,0E0,6.971397E-1,3.412286E-1,0E0,0E0,6.2203693E-1,3.5859525E-1,0E0,0E0,1.9571531E-1,1.8811354E-1,0E0,0E0,0E0,0E0,0E0,0E0],"parents":[2147483647,0,0,1,1,2,2,3,3,4,4,7,7,8,8,9,9,10,10,11,11,12,12,13,13,14,14,15,15,16,16,18,18,19,19,20,20,21,21,22,22,24,24,25,25,28,28,29,29,30,30,33,33,34,34,35,35,36,36,37,37,39,39,52,52,53,53,55,55,56,56,57,57,59,59,61,61,62,62,67,67,71,71,75,75,76,76,77,77,78,78,82,82,83,83,89,89,93,93,94,94,97,97,98,98,101,101,102,102],"right_children":[2,4,6,8,10,-1,-1,12,14,16,18,20,22,24,26,28,30,-1,32,34,36,38,40,-1,42,44,-1,-1,46,48,50,-1,-1,52,54,56,58,60,-1,62,-1,-1,-1,-1,-1,-1,-1,-1,-1,-1,-1,-1,64,66,-1,68,70,72,-1,74,-1,76,78,-1,-1,-1,-1,80,-1,-1,-1,82,-1,-1,-1,84,86,88,90,-1,-1,-1,92,94,-1,-1,-1,-1,-1,96,-1,-1,-1,98,100,-1,-1,102,104,-1,-1,106,108,-1,-1,-1,-1,-1,-1],"split_conditions":[1E0,3E0,4.128605E0,1E1,1E0,-3.200651E-2,-9.453607E-1,1E0,1E0,3E0,1E0,2E0,4.2167215E0,2E0,1.0094527E0,1E1,5E0,4.4266385E-1,1.6E1,1E0,7.56208E-1,1.9E1,2E0,3.8911745E-1,5.1E1,2E0,-1.0904478E-1,-6.0830507E-2,2E0,8E0,2E0,-7.497668E-1,4.6367753E-2,5E0,1.1E1,6.422248E-1,2E0,6E0,9.7676855E-1,1E0,-7.5401455E-1,-5.342069E-1,9.453577E-2,-9.0212226E-1,-2.4117842E-1,9.2312545E-1,1.8166175E-1,-5.509886E-1,8.2292445E-3,1.15786485E-1,7.097116E-1,-1.069977E-2,2E0,1.7924813E0,-5.2208716E-1,2E0,3.8005848E0,1E0,3.6653015E-1,2E0,-8.043846E-2,1E0,4.6987762E0,-7.760811E-1,-5.8263313E-2,5.0112337E-1,-1.6536261E-1,3.6714056E0,-4.0755224E-1,7.368076E-1,1.251255E-1,1E0,-7.39644E-1,6.6906893E-1,1.9958729E-1,5E0,1E0,1E0,5.102276E0,3.5927424E-1,-1.21889964E-1,-5.023468E-1,2E0,2E0,5.931305E-1,-7.364018E-1,3.2554838E-1,2.8441057E-1,9.9362296E-1,1E1,2.899368E-1,5.6044424E-1,-1.8829718E-1,4.6908474E0,4.4E1,-3.1113294E-1,7.329516E-2,1E0,3E0,-3.8456745E-2,-6.592716E-1,2E1,3.1464264E0,5.836593E-1,-8.417364E-3,-6.095625E-1,-4.1737236E-2,3.7166938E-1,-8.273042E-2],"split_indices":[35,23,7,84,124,0,0,71,62,80,45,74,7,21,10,74,91,0,22,66,10,4,60,0,0,43,0,0,95,80,50,0,0,1,4,10,21,20,0,16,0,0,0,0,0,0,0,0,0,0,0,0,62,9,0,40,5,62,0,76,0,83,7,0,0,0,0,8,0,0,0,76,0,0,0,18,128,52,7,0,0,0,93,40,0,0,0,0,0,25,0,0,0,5,1,0,0,3,3,0,0,12,5,0,0,0,0,0,0],"split_type":[0,0,0,0,0,0,0,0,0,0,0,0,0,0,0,0,0,0,0,0,0,0,0,0,0,0,0,0,0,0,0,0,0,0,0,0,0,0,0,0,0,0,0,0,0,0,0,0,0,0,0,0,0,0,0,0,0,0,0,0,0,0,0,0,0,0,0,0,0,0,0,0,0,0,0,0,0,0,0,0,0,0,0,0,0,0,0,0,0,0,0,0,0,0,0,0,0,0,0,0,0,0,0,0,0,0,0,0,0],"sum_hessian":[1.18935524E2,1.02622406E2,1.6313118E1,8.265116E1,1.9971243E1,1.0284667E0,1.5284652E1,6.908133E1,1.3569837E1,1.5984631E1,3.986613E0,3.234417E1,3.6737156E1,4.0495896E0,9.5202465E0,1.0068222E1,5.916408E0,1.103062E0,2.8835511E0,1.5556105E1,1.6788065E1,7.9436283E0,2.879353E1,1.2747468E0,2.774843E0,8.392669E0,1.127578E0,1.4928185E0,8.575404E0,2.6386063E0,3.2778015E0,1.8265173E0,1.0570338E0,1.1407006E1,4.1490984E0,8.073902E0,8.714163E0,5.423772E0,2.5198565E0,2.554085E1,3.2526803E0,1.107161E0,1.667682E0,7.3615603E0,1.0311078E0,6.809446E0,1.7659583E0,1.5129381E0,1.1256682E0,1.2759049E0,2.0018966E0,1.7129579E0,9.694048E0,3.0470645E0,1.1020341E0,4.261227E0,3.8126745E0,7.4555993E0,1.2585636E0,4.059177E0,1.3645949E0,1.9091503E1,6.4493456E0,8.654972E0,1.0390762E0,1.5251368E0,1.5219277E0,3.1928868E0,1.0683402E0,1.9342039E0,1.8784708E0,4.955587E0,2.5000124E0,2.710173E0,1.3490039E0,1.4291602E1,4.7999015E0,2.3452883E0,4.1040573E0,1.7233847E0,1.4695022E0,1.7717918E0,3.1837952E0,1.1817498E1,2.474104E0,3.4930797E0,1.306822E0,1.2984542E0,1.0468342E0,2.2912283E0,1.8128288E0,1.872427E0,1.3113683E0,7.885172E0,3.9323263E0,1.2623206E0,1.0289077E0,4.4875374E0,3.3976345E0,1.3488718E0,2.5834544E0,2.3362176E0,2.1513197E0,1.8438488E0,1.5537857E0,1.2976146E0,1.0386032E0,1.0422783E0,1.1090415E0],"tree_param":{"num_deleted":"0","num_feature":"136","num_nodes":"109","size_leaf_vector":"1"}},{"base_weights":[-7.931462E-2,-1.3538268E-2,-7.5625235E-1,-4.8407115E-2,6.5747803E-1,-2.2798683E-2,-8.5929847E-1,-8.466146E-2,4.841121E-1,-1.16147466E-1,3.614372E-1,7.3322874E-1,-2.6604313E-1,-4.103343E-2,-3.4407374E-1,5.033153E-1,-1.01568855E-1,-1.7810656E-1,2.0752436E-1,-1.4211284E-1,-7.878118E-1,5.792505E-1,1.4075676E-1,-8.716506E-2,-6.32556E-1,4.731673E-1,-4.394324E-2,1.626646E-1,-3.4864476E-1,-1.5623969E-2,-6.972167E-1,-7.111005E-1,-1.376419E-1,1.367751E-1,1.2467862E0,-5.268012E-1,1.5129398E-1,-1.0648971E-1,3.8250646E-1,-4.6688706E-1,2.2030646E-1,4.639333E-2,-4.2567313E-1,2.8284857E-1,-1.3614741E-1,4.7432023E-1,-1.4283742E-1,-3.143507E-1,1.586546E-1,4.793363E-1,1.0155555E-1,-1.2223328E-1,-6.5036607E-1,-4.2406198E-2,4.8581862E-1,-6.288991E-1,5.088521E-2,3.9938724E-1,-8.1594534E-2,-4.229302E-1,1.6171852E-1,5.9847695E-1,1.0879798E-1,-3.2529208E-1,1.2851772E-1,-3.5071194E-1,1.2269228E-1,9.503469E-2,-4.1662773E-1,6.742722E-1,-2.543727E-2,6.009245E-1,-5.8627944E-3,-4.606156E-1,-2.6240307E-3,4.4926772E-1,-8.9865625E-2,-6.3299006E-1,6.791403E-2,7.446299E-1,-3.105584E-1,-2.3792969E-1,4.0211365E-1,5.044221E-3,-8.58106E-1,-4.8309234E-1,9.5837675E-2,5.232341E-1,9.1791324E-2,-8.554988E-2,-5.909155E-1,3.0856937E-1,-2.5796136E-1,2.1724122E-2,4.5439824E-1],"categories":[],"categories_nodes":[],"categories_segments":[],"categories_sizes":[],"default_left":[0,0,0,0,0,0,0,0,0,0,0,0,0,0,0,0,0,0,0,0,0,0,0,0,0,0,0,0,0,0,0,0,0,0,0,0,0,0,0,0,0,0,0,0,0,0,0,0,0,0,0,0,0,0,0,0,0,0,0,0,0,0,0,0,0,0,0,0,0,0,0,0,0,0,0,0,0,0,0,0,0,0,0,0,0,0,0,0,0,0,0,0,0,0,0],"id":6,"left_children":[1,3,5,7,-1,-1,-1,9,11,13,15,-1,-1,17,19,21,-1,23,25,27,-1,-1,-1,29,31,33,35,37,39,41,-1,-1,-1,43,-1,-1,45,47,49,51,-1,53,55,57,59,61,63,-1,-1,-1,-1,65,-1,67,69,-1,-1,71,-1,-1,-1,-1,-1,73,-1,-1,-1,75,77,-1,-1,-1,-1,-1,-1,79,81,83,-1,-1,-1,85,87,-1,-1,89,91,-1,-1,-1,-1,93,-1,-1,-1],"loss_changes":[4.0154E0,1.9836812E0,5.8418846E-1,1.5899537E0,0E0,0E0,0E0,1.10903E0,1.178587E0,1.2137156E0,3.9610434E-1,0E0,0E0,1.9134436E0,1.4689913E0,3.3759832E-2,0E0,1.4342318E0,1.359397E0,8.966285E-1,0E0,0E0,0E0,1.3502772E0,1.2949991E-1,2.387553E0,1.1364032E0,3.9999956E-1,6.5933335E-1,7.5563484E-1,0E0,0E0,0E0,3.5640723E-1,0E0,0E0,8.99929E-1,2.4342495E-1,4.816115E-2,3.7385154E-1,0E0,1.0366104E0,4.0970546E-1,2.6698902E-1,3.6353356E-1,1.3482803E-1,3.068288E-1,0E0,0E0,0E0,0E0,2.513167E-1,0E0,1.2009689E0,4.4661808E-1,0E0,0E0,3.5891658E-1,0E0,0E0,0E0,0E0,0E0,1.5091738E-1,0E0,0E0,0E0,1.1753882E0,6.983377E-1,0E0,0E0,0E0,0E0,0E0,0E0,1.6024425E0,9.85777E-1,6.389468E-1,0E0,0E0,0E0,8.662697E-1,7.2190404E-2,0E0,0E0,2.0417905E-1,4.6179095E-1,0E0,0E0,0E0,0E0,1.4182842E-1,0E0,0E0,0E0],"parents":[2147483647,0,0,1,1,2,2,3,3,7,7,8,8,9,9,10,10,13,13,14,14,15,15,17,17,18,18,19,19,23,23,24,24,25,25,26,26,27,27,28,28,29,29,33,33,36,36,37,37,38,38,39,39,41,41,42,42,43,43,44,44,45,45,46,46,51,51,53,53,54,54,57,57,63,63,67,67,68,68,75,75,76,76,77,77,81,81,82,82,85,85,86,86,91,91],"right_children":[2,4,6,8,-1,-1,-1,10,12,14,16,-1,-1,18,20,22,-1,24,26,28,-1,-1,-1,30,32,34,36,38,40,42,-1,-1,-1,44,-1,-1,46,48,50,52,-1,54,56,58,60,62,64,-1,-1,-1,-1,66,-1,68,70,-1,-1,72,-1,-1,-1,-1,-1,74,-1,-1,-1,76,78,-1,-1,-1,-1,-1,-1,80,82,84,-1,-1,-1,86,88,-1,-1,90,92,-1,-1,-1,-1,94,-1,-1,-1],"split_conditions":[1E0,1E0,4.141957E0,1E0,6.5747803E-1,-2.2798683E-2,-8.5929847E-1,4E0,2E0,1E0,2E0,7.3322874E-1,-2.6604313E-1,2E1,1E0,4.5783663E0,-1.01568855E-1,2E0,4.7073383E0,4.046209E0,-7.878118E-1,5.792505E-1,1.4075676E-1,1E0,8E0,4E0,4.897158E0,5.028315E0,3E1,1E0,-6.972167E-1,-7.111005E-1,-1.376419E-1,1.1E2,1.2467862E0,-5.268012E-1,1.49E2,1E0,4.682115E0,1E0,2.2030646E-1,2.321928E0,5E0,9.6E1,1.78E2,5E0,1.3E1,-3.143507E-1,1.586546E-1,4.793363E-1,1.0155555E-1,5E0,-6.5036607E-1,1.7924813E0,3.9195633E0,-6.288991E-1,5.088521E-2,3E0,-8.1594534E-2,-4.229302E-1,1.6171852E-1,5.9847695E-1,1.0879798E-1,4.2E1,1.2851772E-1,-3.5071194E-1,1.2269228E-1,3E0,2E0,6.742722E-1,-2.543727E-2,6.009245E-1,-5.8627944E-3,-4.606156E-1,-2.6240307E-3,1.2253852E0,1.0919956E0,3.7690508E0,6.791403E-2,7.446299E-1,-3.105584E-1,4.535244E0,2.3E1,5.044221E-3,-8.58106E-1,4.0178385E0,1.2E1,5.232341E-1,9.1791324E-2,-8.554988E-2,-5.909155E-1,2E0,-2.5796136E-1,2.1724122E-2,4.5439824E-1],"split_indices":[35,51,7,120,0,0,0,133,80,45,44,0,0,39,60,8,0,21,7,8,0,0,0,100,21,21,7,5,53,36,0,0,0,12,0,0,12,82,7,72,0,9,74,1,12,71,40,0,0,0,0,71,0,9,7,0,0,71,0,0,0,0,0,74,0,0,0,24,74,0,0,0,0,0,0,10,10,7,0,0,0,7,1,0,0,7,74,0,0,0,0,79,0,0,0],"split_type":[0,0,0,0,0,0,0,0,0,0,0,0,0,0,0,0,0,0,0,0,0,0,0,0,0,0,0,0,0,0,0,0,0,0,0,0,0,0,0,0,0,0,0,0,0,0,0,0,0,0,0,0,0,0,0,0,0,0,0,0,0,0,0,0,0,0,0,0,0,0,0,0,0,0,0,0,0,0,0,0,0,0,0,0,0,0,0,0,0,0,0,0,0,0,0],"sum_hessian":[8.940994E1,8.242127E1,6.9886694E0,7.923191E1,3.189365E0,1.0113571E0,5.9773126E0,7.496898E1,4.262932E0,7.071732E1,4.2516494E0,3.2171297E0,1.0458024E0,5.4076294E1,1.6641033E1,3.1877673E0,1.0638819E0,3.503748E1,1.9038815E1,1.2343385E1,4.297649E0,2.1415594E0,1.0462078E0,3.0188211E1,4.849267E0,8.829728E0,1.0209086E1,5.0716267E0,7.2717576E0,2.7937569E1,2.250643E0,3.8080945E0,1.0411727E0,6.974019E0,1.8557088E0,2.4504373E0,7.7586493E0,2.511897E0,2.5597298E0,6.169062E0,1.1026955E0,2.5037643E1,2.8999238E0,4.5189953E0,2.455024E0,3.4057322E0,4.352917E0,1.304021E0,1.2078761E0,1.3785062E0,1.1812236E0,2.722053E0,3.4470088E0,2.1580193E1,3.4574518E0,1.8088712E0,1.0910527E0,3.351421E0,1.1675742E0,1.0368683E0,1.4181557E0,2.066489E0,1.3392432E0,2.4839692E0,1.8689482E0,1.1848521E0,1.5372009E0,1.6329046E1,5.2511454E0,2.2932754E0,1.1641766E0,1.9158099E0,1.4356112E0,1.4488256E0,1.0351435E0,5.1098275E0,1.1219219E1,3.4183722E0,1.8327732E0,3.6939156E0,1.415912E0,9.020753E0,2.198466E0,1.1465001E0,2.271872E0,4.942753E0,4.0780005E0,1.087795E0,1.1106709E0,1.4372095E0,3.5055432E0,2.6265519E0,1.4514487E0,1.2725052E0,1.3540466E0],"tree_param":{"num_deleted":"0","num_feature":"136","num_nodes":"95","size_leaf_vector":"1"}},{"base_weights":[-4.828701E-2,2.3544567E-2,-4.2562982E-1,-3.0055162E-1,9.056793E-2,-5.41016E-1,1.9073863E-1,1.22814134E-1,-5.4212385E-1,2.0567192E-1,-7.781528E-2,-6.347974E-1,1.4479394E-1,-1.96625E-1,4.559277E-1,-6.937124E-1,-5.3290203E-2,1.21256225E-1,6.5662897E-1,-3.5795775E-1,1.5733007E-1,-7.776063E-1,-8.4228486E-2,9.102557E-2,-3.8428348E-1,2.4757919E-1,-8.377335E-2,-4.8295996E-1,9.279533E-3,4.8781633E-1,-1.7353983E-1,3.2124516E-1,-2.2466017E-1,4.4554237E-1,-1.842697E-1,5.608369E-2,-5.9803677E-1,3.5004544E-1,-4.1242903E-1,1.0543599E0,1.8869294E-1,-3.927226E-1,4.4657102E-1,-1.15719356E-1,4.490226E-1,-3.2263198E-1,2.9755926E-1,-6.930768E-1,-6.1591785E-2,-1.7849098E-1,4.5881966E-1,-5.7152915E-1,-1.8463092E-2,1.4606412E-1,-3.9537984E-1,5.075419E-1,-4.82928E-2,-4.263643E-1,1.2866851E-2,-4.1755453E-1,1.4959624E-1,6.571093E-1,-5.8212443E-3,-1.4926322E-1,-6.777259E-1,8.4638745E-2,6.006589E-1,-3.9520536E-2,-5.499571E-1,3.527735E-1,-2.3747304E-1,6.5212786E-2,6.707149E-1],"categories":[],"categories_nodes":[],"categories_segments":[],"categories_sizes":[],"default_left":[0,0,0,0,0,0,0,0,0,0,0,0,0,0,0,0,0,0,0,0,0,0,0,0,0,0,0,0,0,0,0,0,0,0,0,0,0,0,0,0,0,0,0,0,0,0,0,0,0,0,0,0,0,0,0,0,0,0,0,0,0,0,0,0,0,0,0,0,0,0,0,0,0],"id":7,"left_children":[1,3,5,7,9,11,-1,13,15,17,19,21,-1,23,-1,-1,-1,25,-1,27,29,-1,-1,-1,-1,31,33,35,37,39,41,43,-1,-1,45,-1,47,-1,-1,-1,49,51,-1,53,55,57,-1,-1,-1,59,61,63,-1,-1,-1,65,-1,67,-1,-1,-1,-1,-1,-1,-1,69,71,-1,-1,-1,-1,-1,-1],"loss_changes":[1.9782017E0,1.3728609E0,9.3278337E-1,1.1759593E0,1.025805E0,7.406037E-1,0E0,5.9573966E-1,4.8849368E-1,1.1088964E0,1.4976474E0,6.467285E-1,0E0,2.037515E-1,0E0,0E0,0E0,7.336283E-1,0E0,4.7684956E-1,1.461349E0,0E0,0E0,0E0,0E0,6.7345154E-1,6.8003213E-1,5.109191E-1,6.6087747E-1,9.1292953E-1,1.1307381E0,9.0975916E-1,0E0,0E0,7.729619E-1,0E0,2.8501558E-1,0E0,0E0,0E0,6.2860155E-1,3.7259287E-1,0E0,3.704451E-1,3.7642312E-1,2.9673535E-1,0E0,0E0,0E0,3.0217218E-1,3.222146E-1,7.1083665E-2,0E0,0E0,0E0,3.7863135E-1,0E0,2.8528953E-1,0E0,0E0,0E0,0E0,0E0,0E0,0E0,3.5428518E-1,2.8538108E-1,0E0,0E0,0E0,0E0,0E0,0E0],"parents":[2147483647,0,0,1,1,2,2,3,3,4,4,5,5,7,7,8,8,9,9,10,10,11,11,13,13,17,17,19,19,20,20,25,25,26,26,27,27,28,28,29,29,30,30,31,31,34,34,36,36,40,40,41,41,43,43,44,44,45,45,49,49,50,50,51,51,55,55,57,57,65,65,66,66],"right_children":[2,4,6,8,10,12,-1,14,16,18,20,22,-1,24,-1,-1,-1,26,-1,28,30,-1,-1,-1,-1,32,34,36,38,40,42,44,-1,-1,46,-1,48,-1,-1,-1,50,52,-1,54,56,58,-1,-1,-1,60,62,64,-1,-1,-1,66,-1,68,-1,-1,-1,-1,-1,-1,-1,70,72,-1,-1,-1,-1,-1,-1],"split_conditions":[1E0,1E0,2E0,1E1,1E0,1E0,1.9073863E-1,4E0,1.1E1,6.07E2,1.6E1,5.0409493E0,1.4479394E-1,3E0,4.559277E-1,-6.937124E-1,-5.3290203E-2,1E0,6.5662897E-1,1E0,6E0,-7.776063E-1,-8.4228486E-2,9.102557E-2,-3.8428348E-1,1E0,8E0,3.5216405E0,9E0,2E0,9E0,2.297247E0,-2.2466017E-1,4.4554237E-1,5.0940766E0,5.608369E-2,8E0,3.5004544E-1,-4.1242903E-1,1.0543599E0,9E0,1.2E1,4.4657102E-1,7E0,2E0,1E0,2.9755926E-1,-6.930768E-1,-6.1591785E-2,1E0,3E0,1E0,-1.8463092E-2,1.4606412E-1,-3.9537984E-1,3E0,-4.82928E-2,3.6163485E0,1.2866851E-2,-4.1755453E-1,1.4959624E-1,6.571093E-1,-5.8212443E-3,-1.4926322E-1,-6.777259E-1,7.152096E-1,1E1,-3.9520536E-2,-5.499571E-1,3.527735E-1,-2.3747304E-1,6.5212786E-2,6.707149E-1],"split_indices":[106,39,19,1,105,54,0,12,74,1,24,7,0,1,0,0,0,62,0,16,3,0,0,0,0,107,0,8,20,62,95,5,0,0,7,0,105,0,0,0,40,66,0,4,21,46,0,0,0,22,82,50,0,0,0,39,0,8,0,0,0,0,0,0,0,10,4,0,0,0,0,0,0],"split_type":[0,0,0,0,0,0,0,0,0,0,0,0,0,0,0,0,0,0,0,0,0,0,0,0,0,0,0,0,0,0,0,0,0,0,0,0,0,0,0,0,0,0,0,0,0,0,0,0,0,0,0,0,0,0,0,0,0,0,0,0,0,0,0,0,0,0,0,0,0,0,0,0,0],"sum_hessian":[7.161284E1,6.094824E1,1.0664599E1,9.847187E0,5.110105E1,9.085935E0,1.5786641E0,3.7560873E0,6.0911E0,3.0221012E1,2.0880037E1,8.0583725E0,1.027563E0,2.1265595E0,1.6295277E0,4.3294187E0,1.7616816E0,2.6524681E1,3.69633E0,9.290014E0,1.1590023E1,6.0712233E0,1.9871486E0,1.0429001E0,1.0836594E0,1.6284151E1,1.0240531E1,6.695759E0,2.594256E0,5.561063E0,6.02896E0,1.4363317E1,1.9208341E0,1.086181E0,9.15435E0,1.268145E0,5.4276137E0,1.5288159E0,1.06544E0,1.049142E0,4.511921E0,4.725416E0,1.3035437E0,3.271168E0,1.1092149E1,7.3687396E0,1.7856104E0,4.3627076E0,1.0649062E0,2.0561812E0,2.45574E0,2.8410032E0,1.8844131E0,1.9363275E0,1.3348404E0,9.905948E0,1.1862007E0,5.421606E0,1.9471338E0,1.0317175E0,1.0244635E0,1.430872E0,1.024868E0,1.0543137E0,1.7866895E0,2.1320252E0,7.773923E0,1.6322986E0,3.7893074E0,1.1115503E0,1.0204748E0,1.1228343E0,6.6510887E0],"tree_param":{"num_deleted":"0","num_feature":"136","num_nodes":"73","size_leaf_vector":"1"}},{"base_weights":[-2.299235E-2,-5.1983204E-2,7.3414546E-1,-5.6613283E-4,-6.4763707E-1,-4.205447E-2,4.838414E-1,-7.338856E-1,-1.6505364E-1,4.91211E-2,-2.3557314E-1,-8.174565E-2,7.087342E-1,1.0500322E-1,-2.5722015E-1,-2.9078907E-1,3.0393204E-1,1.6653138E-1,-2.7468407E-1,-4.68835E-1,3.153886E-1,2.023958E-1,-3.4485033E-1,7.027563E-2,3.8262907E-1,-4.2960188E-1,6.1340474E-2,-5.690262E-1,-1.0679911E-1,-4.0649846E-1,1.1449739E-1,2.3163049E-1,-1.3978234E-1,4.7117192E-1,-2.0543158E-2,-5.2181864E-1,-1.4701119E-1,-4.5603207E-1,8.820847E-2,2.9068375E-1,-1.1924305E-1,-3.022197E-1,2.187493E-1,5.660816E-1,6.881974E-2,-1.2170349E-1,-5.151404E-1,3.5670224E-1,-1.1162937E-1,-4.174825E-1,1.7569152E-1,-5.8568608E-2,3.5941303E-1,-3.2936773E-1,1.442622E-1,-5.689309E-1,-9.2452236E-2,1.5337345E-1,4.8396048E-1,-6.1791164E-1,-1.3205263E-1,-6.136155E-1,-1.20662585E-1,5.1640636E-1,-2.0186146E-1,8.099725E-2,5.6338406E-1,-3.4163418E-1,2.0076995E-1,-7.070751E-1,-1.8134218E-1,5.0694782E-2,-3.406733E-1,1.6132076E-1,6.465351E-1],"categories":[],"categories_nodes":[],"categories_segments":[],"categories_sizes":[],"default_left":[0,0,0,0,0,0,0,0,0,0,0,0,0,0,0,0,0,0,0,0,0,0,0,0,0,0,0,0,0,0,0,0,0,0,0,0,0,0,0,0,0,0,0,0,0,0,0,0,0,0,0,0,0,0,0,0,0,0,0,0,0,0,0,0,0,0,0,0,0,0,0,0,0,0,0],"id":8,"left_children":[1,3,-1,5,7,9,11,-1,-1,13,15,-1,-1,17,19,21,-1,23,25,27,-1,-1,29,31,33,35,-1,-1,-1,37,-1,39,41,43,-1,-1,-1,45,-1,47,-1,49,51,-1,-1,53,55,57,-1,59,-1,-1,-1,-1,-1,61,-1,63,65,-1,67,69,-1,-1,71,-1,73,-1,-1,-1,-1,-1,-1,-1,-1],"loss_changes":[1.3638202E0,1.8097017E0,0E0,1.1338464E0,7.430005E-2,9.2826664E-1,6.240809E-1,0E0,0E0,6.457434E-1,5.891794E-1,0E0,0E0,7.764262E-1,8.586488E-1,4.900354E-1,0E0,5.459222E-1,2.7305144E-1,1.09173775E-1,0E0,0E0,4.592601E-1,7.19641E-1,3.0458987E-1,1.1071563E-2,0E0,0E0,0E0,3.6049175E-1,0E0,2.800777E-1,6.15458E-1,2.2130406E-1,0E0,0E0,0E0,1.7527819E-1,0E0,3.1681085E-1,0E0,4.5406836E-1,1.5840723E-1,0E0,0E0,2.19755E-1,1.730318E-1,1.6375148E-1,0E0,2.539103E-1,0E0,0E0,0E0,0E0,0E0,9.841037E-2,0E0,7.496125E-1,1.2056136E-1,0E0,3.260573E-1,1.7817807E-1,0E0,0E0,1.3114852E-1,0E0,3.5108447E-2,0E0,0E0,0E0,0E0,0E0,0E0,0E0,0E0],"parents":[2147483647,0,0,1,1,3,3,4,4,5,5,6,6,9,9,10,10,13,13,14,14,15,15,17,17,18,18,19,19,22,22,23,23,24,24,25,25,29,29,31,31,32,32,33,33,37,37,39,39,41,41,42,42,45,45,46,46,47,47,49,49,55,55,57,57,58,58,60,60,61,61,64,64,66,66],"right_children":[2,4,-1,6,8,10,12,-1,-1,14,16,-1,-1,18,20,22,-1,24,26,28,-1,-1,30,32,34,36,-1,-1,-1,38,-1,40,42,44,-1,-1,-1,46,-1,48,-1,50,52,-1,-1,54,56,58,-1,60,-1,-1,-1,-1,-1,62,-1,64,66,-1,68,70,-1,-1,72,-1,74,-1,-1,-1,-1,-1,-1,-1,-1],"split_conditions":[1E0,1E0,7.3414546E-1,1E0,4.229327E0,1E0,3.9952378E0,-7.338856E-1,-1.6505364E-1,1E0,1E0,-8.174565E-2,7.087342E-1,3E0,3E0,4.267736E0,3.0393204E-1,3E0,4.267622E0,1E0,3.153886E-1,2.023958E-1,2E0,2.5E1,5.0268774E0,9E0,6.1340474E-2,-5.690262E-1,-1.0679911E-1,1.02E2,1.1449739E-1,1E0,2E1,1E0,-2.0543158E-2,-5.2181864E-1,-1.4701119E-1,8.3E1,8.820847E-2,3E0,-1.1924305E-1,2.04E2,4E0,5.660816E-1,6.881974E-2,4.9E1,1E1,8E0,-1.1162937E-1,9.1829586E-1,1.7569152E-1,-5.8568608E-2,3.5941303E-1,-3.2936773E-1,1.442622E-1,3E0,-9.2452236E-2,4E0,5.3891855E-1,-6.1791164E-1,7.3351294E-1,6E0,-1.20662585E-1,5.1640636E-1,5.734988E-1,8.099725E-2,4.3075337E0,-3.4163418E-1,2.0076995E-1,-7.070751E-1,-1.8134218E-1,5.0694782E-2,-3.406733E-1,1.6132076E-1,6.465351E-1],"split_indices":[29,100,0,2,8,83,8,0,0,124,115,0,0,21,62,7,0,25,8,110,0,0,129,1,7,84,0,0,0,105,0,62,39,18,0,0,0,1,0,66,0,1,71,0,0,12,16,12,0,9,0,0,0,0,0,91,0,1,10,0,10,22,0,0,10,0,7,0,0,0,0,0,0,0,0],"split_type":[0,0,0,0,0,0,0,0,0,0,0,0,0,0,0,0,0,0,0,0,0,0,0,0,0,0,0,0,0,0,0,0,0,0,0,0,0,0,0,0,0,0,0,0,0,0,0,0,0,0,0,0,0,0,0,0,0,0,0,0,0,0,0,0,0,0,0,0,0,0,0,0,0,0,0],"sum_hessian":[5.9394184E1,5.810084E1,1.2933425E0,5.440549E1,3.6953526E0,5.095454E1,3.4509497E0,2.6932626E0,1.00209E0,3.514315E1,1.581139E1,1.1628898E0,2.28806E0,3.027727E1,4.8658805E0,1.4761613E1,1.0497769E0,2.6538168E1,3.7391005E0,3.6851983E0,1.1806824E0,1.1872114E0,1.3574402E1,1.9276913E1,7.261256E0,2.3686125E0,1.3704879E0,2.4385931E0,1.2466053E0,1.2069615E1,1.5047861E0,1.0844257E1,8.432654E0,5.8154354E0,1.445821E0,1.1475755E0,1.2210371E0,1.10421715E1,1.0274436E0,9.428885E0,1.4153723E0,5.911456E0,2.5211983E0,4.376213E0,1.4392223E0,2.118501E0,8.923671E0,8.19713E0,1.2317554E0,4.864643E0,1.0468129E0,1.0448695E0,1.4763287E0,1.0557747E0,1.0627261E0,7.6093383E0,1.3143327E0,4.0043435E0,4.1927867E0,2.173537E0,2.691106E0,6.5841546E0,1.0251839E0,1.7560458E0,2.2482977E0,1.0228862E0,3.1699004E0,1.6350341E0,1.056072E0,4.8909864E0,1.6931682E0,1.0225856E0,1.2257121E0,1.047068E0,2.1228323E0],"tree_param":{"num_deleted":"0","num_feature":"136","num_nodes":"75","size_leaf_vector":"1"}},{"base_weights":[-1.5947102E-2,8.417137E-3,-5.57539E-1,-1.5372287E-2,4.5241618E-1,4.5849085E-2,-2.5319347E-1,-1.15964785E-2,3.0267176E-1,-3.4311342E-1,2.2102815E-1,2.5010025E-2,-4.196759E-1,4.4915634E-1,-1.5183331E-1,-4.3773657E-1,1.3697799E-1,-2.5425475E-2,5.293202E-1,7.4155915E-1,9.492099E-2,9.900837E-2,-5.3792256E-1,-5.695887E-2,3.4533685E-1,-1.7256138E-1,3.3069155E-1,-5.9378386E-1,-1.263988E-1,9.916345E-3,-2.961493E-1,-1.6471705E-1,-6.5168464E-1,-7.735028E-2,2.8127596E-1,4.7314274E-3,-5.0428206E-1,8.025582E-2,-2.0944713E-1,4.236878E-1,-1.8822943E-1,-2.4889837E-1,2.5442278E-1,-1.4763992E-1,4.4895124E-1,-3.3887303E-1,2.7711004E-1,5.7703245E-2,5.1114196E-1,-2.788094E-1,2.1433333E-1,-4.0873748E-1,6.942405E-2,-2.6417203E-2,-3.6007494E-1,-5.4072076E-1,-4.81953E-2,-4.395699E-1,-7.1166374E-2,1.6290703E-1,-2.2974959E-1],"categories":[],"categories_nodes":[],"categories_segments":[],"categories_sizes":[],"default_left":[0,0,0,0,0,0,0,0,0,0,0,0,0,0,0,0,0,0,0,0,0,0,0,0,0,0,0,0,0,0,0,0,0,0,0,0,0,0,0,0,0,0,0,0,0,0,0,0,0,0,0,0,0,0,0,0,0,0,0,0,0],"id":9,"left_children":[1,3,-1,5,-1,7,9,11,13,15,-1,17,-1,19,-1,21,-1,23,-1,-1,25,-1,27,29,-1,-1,-1,31,-1,33,35,-1,-1,37,39,41,-1,43,45,47,-1,-1,-1,49,-1,51,-1,-1,-1,53,-1,55,-1,-1,57,-1,59,-1,-1,-1,-1],"loss_changes":[6.8994445E-1,5.422647E-1,0E0,7.2605664E-1,0E0,5.9173864E-1,5.10751E-1,5.116179E-1,5.5587846E-1,4.672339E-1,0E0,8.2046986E-1,0E0,5.295657E-1,0E0,4.6880317E-1,0E0,3.6804754E-1,0E0,0E0,2.9456374E-1,0E0,7.8220725E-2,4.5594943E-1,0E0,0E0,0E0,3.1783104E-2,0E0,5.68782E-1,3.9192843E-1,0E0,0E0,3.970387E-1,4.700152E-1,2.871434E-1,0E0,8.267492E-1,7.3703474E-1,1.2368965E-1,0E0,0E0,0E0,3.6105627E-1,0E0,2.7132183E-1,0E0,0E0,0E0,9.493977E-2,0E0,3.2691014E-1,0E0,0E0,5.5371583E-2,0E0,1.5568686E-1,0E0,0E0,0E0,0E0],"parents":[2147483647,0,0,1,1,3,3,5,5,6,6,7,7,8,8,9,9,11,11,13,13,15,15,17,17,20,20,22,22,23,23,27,27,29,29,30,30,33,33,34,34,35,35,37,37,38,38,39,39,43,43,45,45,49,49,51,51,54,54,56,56],"right_children":[2,4,-1,6,-1,8,10,12,14,16,-1,18,-1,20,-1,22,-1,24,-1,-1,26,-1,28,30,-1,-1,-1,32,-1,34,36,-1,-1,38,40,42,-1,44,46,48,-1,-1,-1,50,-1,52,-1,-1,-1,54,-1,56,-1,-1,58,-1,60,-1,-1,-1,-1],"split_conditions":[2E0,1E0,-5.57539E-1,1.2E1,4.5241618E-1,1E0,1.7E1,3.46E2,1.0399182E0,7.423335E0,2.2102815E-1,3.78E2,-4.196759E-1,1.6E2,-1.5183331E-1,1.2E1,1.3697799E-1,5.258507E0,5.293202E-1,7.4155915E-1,4.5E1,9.900837E-2,2E0,4.1546335E0,3.4533685E-1,-1.7256138E-1,3.3069155E-1,8.6E1,-1.263988E-1,1E0,3.9750497E0,-1.6471705E-1,-6.5168464E-1,1.7E1,1E0,9E0,-5.0428206E-1,1E0,5E0,3.5684788E0,-1.8822943E-1,-2.4889837E-1,2.5442278E-1,4.3138223E0,4.4895124E-1,1E0,2.7711004E-1,5.7703245E-2,5.1114196E-1,1.3743685E0,2.1433333E-1,9E0,6.942405E-2,-2.6417203E-2,2.251629E0,-5.4072076E-1,3.84881E0,-4.395699E-1,-7.1166374E-2,1.6290703E-1,-2.2974959E-1],"split_indices":[35,135,0,3,0,56,23,12,10,5,0,1,0,1,0,4,0,7,0,0,93,0,129,8,0,0,0,1,0,16,5,0,0,1,50,24,0,71,18,8,0,0,0,7,0,129,0,0,0,5,0,74,0,0,9,0,8,0,0,0,0],"split_type":[0,0,0,0,0,0,0,0,0,0,0,0,0,0,0,0,0,0,0,0,0,0,0,0,0,0,0,0,0,0,0,0,0,0,0,0,0,0,0,0,0,0,0,0,0,0,0,0,0,0,0,0,0,0,0,0,0,0,0,0,0],"sum_hessian":[5.09308E1,4.9680325E1,1.2504776E0,4.807011E1,1.6102141E0,3.8870934E1,9.19918E0,3.2545963E1,6.3249674E0,7.9653015E0,1.2338775E0,3.0728222E1,1.8177427E0,4.7922263E0,1.5327408E0,6.727562E0,1.2377397E0,2.8797771E1,1.9304497E0,2.0262525E0,2.7659738E0,1.0600603E0,5.667502E0,2.732053E1,1.477242E0,1.4214411E0,1.3445327E0,4.6001716E0,1.0673302E0,2.2100107E1,5.220423E0,1.0041145E0,3.596057E0,1.7263338E1,4.8367696E0,2.534201E0,2.6862223E0,8.05057E0,9.212769E0,3.785981E0,1.0507885E0,1.258761E0,1.2754397E0,5.345811E0,2.7047584E0,7.5168023E0,1.6959665E0,1.0503234E0,2.7356575E0,4.092536E0,1.253275E0,6.417597E0,1.0992051E0,1.3195103E0,2.7730255E0,4.3320312E0,2.0855658E0,1.7656984E0,1.0073271E0,1.0118017E0,1.0737641E0],"tree_param":{"num_deleted":"0","num_feature":"136","num_nodes":"61","size_leaf_vector":"1"}}]},"name":"gbtree"},"learner_model_param":{"base_score":"2.2541082E-1","boost_from_average":"1","num_class":"0","num_feature":"136","num_target":"1"},"objective":{"name":"binary:logistic","reg_loss_param":{"scale_pos_weight":"1"}}},"version":[2,1,3]}